{"learner":{"attributes":{"best_iteration":"26","best_score":"0.5628234959680165","scikit_learn":"{\"_estimator_type\": \"ranker\"}"},"feature_names":["eps_supply","eps_agg_demand","eps_precaut","eps_supply_lag1","eps_agg_demand_lag1","eps_precaut_lag1","contamination_flag","vix_level","vix_regime","fed_regime_num","credit_spread_ig","credit_spread_hy","hy_available","Recession","oil_ret_3m","oil_ret_12m","net_oil_price_3yr","oil_vol_6m_monthly","is_NoDur","is_Durbl","is_Manuf","is_Enrgy","is_Chems","is_BusEq","is_Telcm","is_Utils","is_Shops","is_Hlth","is_Money","is_Other","own_ret_1m","own_ret_3m","own_mom_12_1","own_vol_6m","cross_rank_12_1"],"feature_types":["float","float","float","float","float","float","int","float","float","int","float","float","int","int","float","float","float","float","int","int","int","int","int","int","int","int","int","int","int","int","float","float","float","float","float"],"gradient_booster":{"model":{"cats":{"enc":[],"feature_segments":[],"sorted_idx":[]},"gbtree_model_param":{"num_parallel_tree":"1","num_trees":"57"},"iteration_indptr":[0,1,2,3,4,5,6,7,8,9,10,11,12,13,14,15,16,17,18,19,20,21,22,23,24,25,26,27,28,29,30,31,32,33,34,35,36,37,38,39,40,41,42,43,44,45,46,47,48,49,50,51,52,53,54,55,56,57],"tree_info":[0,0,0,0,0,0,0,0,0,0,0,0,0,0,0,0,0,0,0,0,0,0,0,0,0,0,0,0,0,0,0,0,0,0,0,0,0,0,0,0,0,0,0,0,0,0,0,0,0,0,0,0,0,0,0,0,0],"trees":[{"base_weights":[2.3432309E-3,-2.1365082E-2,1.2763983E-1,-7.7546453E-3,-1.4098343E-1,1.5896995E-1,-1.0132775E-2,-4.760575E-3,7.881609E-4,-2.0136056E-2,-3.1410914E-3,6.8090097E-3,2.327128E-2],"categories":[],"categories_nodes":[],"categories_segments":[],"categories_sizes":[],"default_left":[0,0,1,0,0,0,0,0,0,0,0,0,0],"id":0,"left_children":[1,3,5,7,9,11,-1,-1,-1,-1,-1,-1,-1],"loss_changes":[4.548756E0,1.9910614E0,2.536875E0,2.395144E0,2.3167593E0,1.2068071E0,0E0,0E0,0E0,0E0,0E0,0E0,0E0],"parents":[2147483647,0,0,1,1,2,2,3,3,4,4,5,5],"right_children":[2,4,6,8,10,12,-1,-1,-1,-1,-1,-1,-1],"split_conditions":[1.1E1,1E0,7.93E0,3E0,3.32E0,2.3864615E-1,-1.0132775E-2,-4.760575E-3,7.881609E-4,-2.0136056E-2,-3.1410914E-3,6.8090097E-3,2.327128E-2],"split_indices":[34,29,11,34,11,14,0,0,0,0,0,0,0],"split_type":[0,0,0,0,0,0,0,0,0,0,0,0,0],"sum_hessian":[1.5114673E3,1.2683182E3,2.431491E2,1.1434579E3,1.24860344E2,2.239398E2,1.9209284E1,2.4618214E2,8.9727576E2,2.6286388E1,9.857396E1,2.1130212E2,1.2637687E1],"tree_param":{"num_deleted":"0","num_feature":"35","num_nodes":"13","size_leaf_vector":"1"}},{"base_weights":[4.1054683E-3,-1.5837086E-2,8.163594E-2,2.800398E-2,-5.6626093E-2,1.3210334E-1,-1.124963E-1,-1.9101196E-3,3.4589947E-3,-3.7494674E-3,8.62667E-3,1.7370256E-2,4.8451545E-3,-0E0,-1.3066466E-2],"categories":[],"categories_nodes":[],"categories_segments":[],"categories_sizes":[],"default_left":[0,0,1,0,0,0,0,0,0,0,0,0,0,0,0],"id":1,"left_children":[1,3,5,7,9,11,13,-1,-1,-1,-1,-1,-1,-1,-1],"loss_changes":[4.750445E0,4.346886E0,6.1908436E0,3.1860268E0,5.270092E0,3.548829E0,2.2164454E0,0E0,0E0,0E0,0E0,0E0,0E0,0E0,0E0],"parents":[2147483647,0,0,1,1,2,2,3,3,4,4,5,5,6,6],"right_children":[2,4,6,8,10,12,14,-1,-1,-1,-1,-1,-1,-1,-1],"split_conditions":[7.63E-2,2.2921432E-2,7.68E0,-9.090972E-3,2.35E0,3.28E0,-1.3608007E-1,-1.9101196E-3,3.4589947E-3,-3.7494674E-3,8.62667E-3,1.7370256E-2,4.8451545E-3,-0E0,-1.3066466E-2],"split_indices":[32,33,11,14,10,11,1,0,0,0,0,0,0,0,0],"split_type":[0,0,0,0,0,0,0,0,0,0,0,0,0,0,0],"sum_hessian":[3.0493096E3,2.4209375E3,6.283721E2,1.161058E3,1.2598795E3,5.0102E2,1.27352104E2,4.4058102E2,7.204769E2,1.1690542E3,9.082529E1,6.7160446E1,4.3385953E2,7.211217E1,5.5239933E1],"tree_param":{"num_deleted":"0","num_feature":"35","num_nodes":"15","size_leaf_vector":"1"}},{"base_weights":[1.8148993E-4,1.0722405E-2,-1.2784196E-1,-1.7884225E-2,5.3987354E-2,-1.8846776E-1,3.6626212E-2,-1.3660333E-3,2.7847057E-2,4.0526E-3,-7.694479E-3,-6.492959E-4,-1.3123283E-2,-2.9680242E-3,8.160324E-3],"categories":[],"categories_nodes":[],"categories_segments":[],"categories_sizes":[],"default_left":[0,0,0,1,1,0,0,0,0,0,0,0,0,0,0],"id":2,"left_children":[1,3,5,7,9,11,13,-1,-1,-1,-1,-1,-1,-1,-1],"loss_changes":[4.0144663E0,3.4748225E0,2.3362112E0,8.834116E0,6.26925E0,2.0340276E0,7.843447E-1,0E0,0E0,0E0,0E0,0E0,0E0,0E0,0E0],"parents":[2147483647,0,0,1,1,2,2,3,3,4,4,5,5,6,6],"right_children":[2,4,6,8,10,12,14,-1,-1,-1,-1,-1,-1,-1,-1],"split_conditions":[1E0,2.28E-2,5.113743E-1,1.219E1,7.93E0,1.464E1,3.0665113E-2,-1.3660333E-3,2.7847057E-2,4.0526E-3,-7.694479E-3,-6.492959E-4,-1.3123283E-2,-2.9680242E-3,8.160324E-3],"split_indices":[29,32,4,11,11,7,14,0,0,0,0,0,0,0,0],"split_type":[0,0,0,0,0,0,0,0,0,0,0,0,0,0,0],"sum_hessian":[3.016193E3,2.7911992E3,2.2499387E2,1.6736305E3,1.1175686E3,1.6650972E2,5.848415E1,1.6483926E3,2.5238024E1,9.9149567E2,1.2607292E2,5.174108E1,1.1476863E2,3.1317131E1,2.7167017E1],"tree_param":{"num_deleted":"0","num_feature":"35","num_nodes":"15","size_leaf_vector":"1"}},{"base_weights":[7.647665E-4,-9.621843E-2,2.042622E-2,1.4347247E-2,-1.1385072E-1,2.9495563E-2,-8.550014E-2,-1.9538768E-3,-1.1010149E-2,1.9551467E-3,-4.062779E-3,-1.6573785E-2,-1.547109E-3],"categories":[],"categories_nodes":[],"categories_segments":[],"categories_sizes":[],"default_left":[0,0,0,0,0,0,0,0,0,0,0,0,0],"id":3,"left_children":[1,3,5,-1,7,9,11,-1,-1,-1,-1,-1,-1],"loss_changes":[5.636935E0,3.3062706E0,2.3557343E0,0E0,3.6584787E0,2.416888E0,2.3770175E0,0E0,0E0,0E0,0E0,0E0,0E0],"parents":[2147483647,0,0,1,1,2,2,4,4,5,5,6,6],"right_children":[2,4,6,-1,8,10,12,-1,-1,-1,-1,-1,-1],"split_conditions":[3E0,-1.434E-1,1E0,1.4347247E-2,6.68E0,1E0,3.46E0,-1.9538768E-3,-1.1010149E-2,1.9551467E-3,-4.062779E-3,-1.6573785E-2,-1.547109E-3],"split_indices":[34,31,29,0,11,19,11,0,0,0,0,0,0],"split_type":[0,0,0,0,0,0,0,0,0,0,0,0,0],"sum_hessian":[2.9740237E3,4.9635425E2,2.4776694E3,1.991676E1,4.764375E2,2.2872761E3,1.9039328E2,2.833154E2,1.9312209E2,2.1094487E3,1.7782751E2,3.1978304E1,1.5841498E2],"tree_param":{"num_deleted":"0","num_feature":"35","num_nodes":"13","size_leaf_vector":"1"}},{"base_weights":[8.535192E-5,-7.1380297E-3,1.6599637E-1,3.1504002E-1,-9.915884E-3,5.188635E-1,4.511976E-2,2.4123902E-2,3.0721778E-3,-2.4461593E-3,7.813371E-5,5.233936E-3,3.661562E-2,6.132134E-3,-1.7314298E-2],"categories":[],"categories_nodes":[],"categories_segments":[],"categories_sizes":[],"default_left":[0,0,0,0,0,0,0,0,0,0,0,0,0,0,0],"id":4,"left_children":[1,3,5,7,9,11,13,-1,-1,-1,-1,-1,-1,-1,-1],"loss_changes":[3.608479E0,2.3734405E0,5.058036E0,6.5758514E-1,1.2762784E0,2.2395782E0,2.837844E0,0E0,0E0,0E0,0E0,0E0,0E0,0E0,0E0],"parents":[2147483647,0,0,1,1,2,2,3,3,4,4,5,5,6,6],"right_children":[2,4,6,8,10,12,14,-1,-1,-1,-1,-1,-1,-1,-1],"split_conditions":[2.12E-1,-3.095E-1,1.26E0,4E-2,4E0,8.9E-1,1.0063763E-1,2.4123902E-2,3.0721778E-3,-2.4461593E-3,7.813371E-5,5.233936E-3,3.661562E-2,6.132134E-3,-1.7314298E-2],"split_indices":[32,32,10,30,34,10,14,0,0,0,0,0,0,0,0],"split_type":[0,0,0,0,0,0,0,0,0,0,0,0,0,0,0],"sum_hessian":[2.9427178E3,2.8179731E3,1.24744705E2,2.1589565E1,2.7963835E3,2.9933336E1,9.481137E1,1.1272607E1,1.0316959E1,6.44953E2,2.1514307E3,1.1483393E1,1.8449944E1,8.0776634E1,1.4034739E1],"tree_param":{"num_deleted":"0","num_feature":"35","num_nodes":"15","size_leaf_vector":"1"}},{"base_weights":[-1.0807686E-2,1.628691E-2,-5.6075864E-2,3.2324255E-2,-2.6096028E-1,-1.0485615E-1,4.8565E-3,6.417962E-4,6.4372397E-3,-2.8076111E-3,-2.16415E-2,-1.1930774E-2,-5.1680394E-4,1.2627098E-3,-2.4111472E-2],"categories":[],"categories_nodes":[],"categories_segments":[],"categories_sizes":[],"default_left":[0,0,0,0,0,0,0,0,0,0,0,0,0,0,0],"id":5,"left_children":[1,3,5,7,9,11,13,-1,-1,-1,-1,-1,-1,-1,-1],"loss_changes":[3.6395879E0,8.073452E0,3.3552861E0,3.200121E0,3.2159295E0,7.738327E0,4.6595197E0,0E0,0E0,0E0,0E0,0E0,0E0,0E0,0E0],"parents":[2147483647,0,0,1,1,2,2,3,3,4,4,5,5,6,6],"right_children":[2,4,6,8,10,12,14,-1,-1,-1,-1,-1,-1,-1,-1],"split_conditions":[2.8622927E-2,1E0,4.2546194E-2,9.8434255E-2,7.047986E-2,-2.58E-2,1.9532289E-1,6.417962E-4,6.4372397E-3,-2.8076111E-3,-2.16415E-2,-1.1930774E-2,-5.1680394E-4,1.2627098E-3,-2.4111472E-2],"split_indices":[33,19,33,17,17,32,17,0,0,0,0,0,0,0,0],"split_type":[0,0,0,0,0,0,0,0,0,0,0,0,0,0,0],"sum_hessian":[2.949438E3,1.838579E3,1.1108591E3,1.7405819E3,9.799699E1,6.211075E2,4.8975162E2,1.4531857E3,2.8739627E2,4.66466E1,5.1350388E1,2.5435072E2,3.667568E2,4.7196194E2,1.778968E1],"tree_param":{"num_deleted":"0","num_feature":"35","num_nodes":"15","size_leaf_vector":"1"}},{"base_weights":[-4.7625597E-3,-1.7383922E-2,7.6069534E-2,-2.3097219E-2,9.8026514E-2,1.08574025E-1,-2.302705E-1,1.0028426E-3,-2.0954513E-3,-1.6161222E-3,2.1896137E-2,4.3321047E-3,1.9945448E-2,-4.461228E-3,-2.2630073E-2],"categories":[],"categories_nodes":[],"categories_segments":[],"categories_sizes":[],"default_left":[0,0,0,1,0,0,0,0,0,0,0,0,0,0,0],"id":6,"left_children":[1,3,5,7,9,11,13,-1,-1,-1,-1,-1,-1,-1,-1],"loss_changes":[2.9328775E0,1.6240766E0,3.8156662E0,1.9622784E0,5.3014545E0,1.9630952E0,8.1603575E-1,0E0,0E0,0E0,0E0,0E0,0E0,0E0,0E0],"parents":[2147483647,0,0,1,1,2,2,3,3,4,4,5,5,6,6],"right_children":[2,4,6,8,10,12,14,-1,-1,-1,-1,-1,-1,-1,-1],"split_conditions":[1.1E1,6.768258E-2,1.179408E0,-4.4132093E-1,3.750515E-1,8.908088E-1,1.8225524E0,1.0028426E-3,-2.0954513E-3,-1.6161222E-3,2.1896137E-2,4.3321047E-3,1.9945448E-2,-4.461228E-3,-2.2630073E-2],"split_indices":[34,33,0,5,15,0,0,0,0,0,0,0,0,0,0],"split_type":[0,0,0,0,0,0,0,0,0,0,0,0,0,0,0],"sum_hessian":[2.9012405E3,2.5154426E3,3.85798E2,2.4016814E3,1.1376101E2,3.5084863E2,3.4949368E1,7.210215E2,1.68066E3,8.181798E1,3.1943027E1,3.2901535E2,2.183329E1,2.3617025E1,1.1332342E1],"tree_param":{"num_deleted":"0","num_feature":"35","num_nodes":"15","size_leaf_vector":"1"}},{"base_weights":[-6.3509825E-3,1.9467614E-3,-1.0003652E-1,-1.8452793E-2,3.400693E-2,-5.438758E-1,2.394694E-2,1.6148364E-3,-2.5980617E-3,-4.277959E-4,4.7402084E-3,-7.802386E-3,-3.1277124E-2,1.8526664E-2,-3.220316E-3],"categories":[],"categories_nodes":[],"categories_segments":[],"categories_sizes":[],"default_left":[0,0,0,0,0,0,0,0,0,0,0,0,0,0,0],"id":7,"left_children":[1,3,5,7,9,11,13,-1,-1,-1,-1,-1,-1,-1,-1],"loss_changes":[2.310343E0,1.7533426E0,1.3566752E1,2.7692108E0,2.754252E0,1.2114973E0,5.961659E0,0E0,0E0,0E0,0E0,0E0,0E0,0E0,0E0],"parents":[2147483647,0,0,1,1,2,2,3,3,4,4,5,5,6,6],"right_children":[2,4,6,8,10,12,14,-1,-1,-1,-1,-1,-1,-1,-1],"split_conditions":[1E0,1.35E-2,-1.4573868E-1,-1.2803993E-1,8.4143914E-2,-4.523469E-1,2.369723E-2,1.6148364E-3,-2.5980617E-3,-4.277959E-4,4.7402084E-3,-7.802386E-3,-3.1277124E-2,1.8526664E-2,-3.220316E-3],"split_indices":[25,31,15,4,17,0,33,0,0,0,0,0,0,0,0],"split_type":[0,0,0,0,0,0,0,0,0,0,0,0,0,0,0],"sum_hessian":[2.9076257E3,2.667047E3,2.4057861E2,1.6206641E3,1.046383E3,5.2671146E1,1.8790747E2,6.3860004E2,9.82064E2,6.1115894E2,4.3522412E2,1.0733219E1,4.1937927E1,3.867217E1,1.4923529E2],"tree_param":{"num_deleted":"0","num_feature":"35","num_nodes":"15","size_leaf_vector":"1"}},{"base_weights":[8.024716E-3,2.1457262E-3,9.184229E-2,8.030003E-3,-7.691817E-2,1.3206995E-1,-2.4759501E-2,-1.1141466E-4,2.548055E-3,1.3992506E-2,-1.2767662E-2,1.1428454E-2,5.9269974E-4],"categories":[],"categories_nodes":[],"categories_segments":[],"categories_sizes":[],"default_left":[0,0,0,0,0,0,0,0,0,0,0,0,0],"id":8,"left_children":[1,3,5,7,9,11,-1,-1,-1,-1,-1,-1,-1],"loss_changes":[1.3756704E0,1.2245662E0,4.2209272E0,1.1361766E0,1.1618057E1,1.889421E0,0E0,0E0,0E0,0E0,0E0,0E0,0E0],"parents":[2147483647,0,0,1,1,2,2,3,3,4,4,5,5],"right_children":[2,4,6,8,10,12,-1,-1,-1,-1,-1,-1,-1],"split_conditions":[1.2E1,1E0,1.3839582E0,8.14613E-1,-5.1285345E-2,1.25E0,-2.4759501E-2,-1.1141466E-4,2.548055E-3,1.3992506E-2,-1.2767662E-2,1.1428454E-2,5.9269974E-4],"split_indices":[34,19,0,2,15,10,0,0,0,0,0,0,0],"split_type":[0,0,0,0,0,0,0,0,0,0,0,0,0],"sum_hessian":[2.886519E3,2.7038604E3,1.8265863E2,2.5232888E3,1.8057164E2,1.7246674E2,1.0191895E1,2.0280032E3,4.952856E2,5.907828E1,1.21493355E2,9.28634E1,7.960334E1],"tree_param":{"num_deleted":"0","num_feature":"35","num_nodes":"13","size_leaf_vector":"1"}},{"base_weights":[-6.4182407E-3,1.3693678E-1,-1.3393155E-2,2.0422027E-1,-1.428463E-2,-1.3847466E-1,-5.126877E-3,1.8033722E-2,2.2526912E-3,-1.2378095E-2,1.4581325E-3,-7.053061E-4,4.6001016E-3],"categories":[],"categories_nodes":[],"categories_segments":[],"categories_sizes":[],"default_left":[0,0,0,0,0,0,0,0,0,0,0,0,0],"id":9,"left_children":[1,3,5,7,-1,9,11,-1,-1,-1,-1,-1,-1],"loss_changes":[2.797108E0,3.695437E0,2.749188E0,2.599275E0,0E0,3.140834E0,2.1990857E0,0E0,0E0,0E0,0E0,0E0,0E0],"parents":[2147483647,0,0,1,1,2,2,3,3,5,5,6,6],"right_children":[2,4,6,8,-1,10,12,-1,-1,-1,-1,-1,-1],"split_conditions":[-9.28E-2,1E0,2E0,-8.260717E-3,-1.428463E-2,9.5364824E-2,1E0,1.8033722E-2,2.2526912E-3,-1.2378095E-2,1.4581325E-3,-7.053061E-4,4.6001016E-3],"split_indices":[31,23,34,15,0,0,27,0,0,0,0,0,0],"split_type":[0,0,0,0,0,0,0,0,0,0,0,0,0],"sum_hessian":[2.8563625E3,1.2833719E2,2.7280254E3,1.1217807E2,1.6159126E1,1.6438525E2,2.5636401E3,5.43484E1,5.782967E1,1.0110117E2,6.3284073E1,2.3521904E3,2.1144965E2],"tree_param":{"num_deleted":"0","num_feature":"35","num_nodes":"13","size_leaf_vector":"1"}},{"base_weights":[2.9039646E-3,3.9320443E-2,-1.734963E-2,8.11587E-2,-3.765617E-2,-4.6665132E-2,2.0508664E-2,2.8513542E-3,1.3010614E-2,-7.1725072E-3,1.304644E-3,-1.3605277E-2,-1.9157054E-3,-2.192105E-3,3.7183294E-3],"categories":[],"categories_nodes":[],"categories_segments":[],"categories_sizes":[],"default_left":[0,0,0,0,0,0,0,0,0,0,0,0,0,0,0],"id":10,"left_children":[1,3,5,7,9,11,13,-1,-1,-1,-1,-1,-1,-1,-1],"loss_changes":[2.0984724E0,3.3107936E0,2.022842E0,2.7023072E0,2.4617438E0,1.7694442E0,2.732799E0,0E0,0E0,0E0,0E0,0E0,0E0,0E0,0E0],"parents":[2147483647,0,0,1,1,2,2,3,3,4,4,5,5,6,6],"right_children":[2,4,6,8,10,12,14,-1,-1,-1,-1,-1,-1,-1,-1],"split_conditions":[-1.43E-2,3.9029232E-1,1.7562954E-1,2.0957589E-1,8.273283E-2,2E0,1.51E-2,2.8513542E-3,1.3010614E-2,-7.1725072E-3,1.304644E-3,-1.3605277E-2,-1.9157054E-3,-2.192105E-3,3.7183294E-3],"split_indices":[31,2,4,2,15,34,31,0,0,0,0,0,0,0,0],"split_type":[0,0,0,0,0,0,0,0,0,0,0,0,0,0,0],"sum_hessian":[2.8283179E3,1.01931287E3,1.809005E3,6.645555E2,3.547574E2,1.0268444E3,7.821606E2,5.892512E2,7.530428E1,1.3586961E2,2.1888777E2,3.3412037E1,9.934324E2,3.5222083E2,4.299398E2],"tree_param":{"num_deleted":"0","num_feature":"35","num_nodes":"15","size_leaf_vector":"1"}},{"base_weights":[4.9021295E-3,7.1860164E-2,-2.2375274E-3,-1.5483059E-2,1.053985E-1,-8.974195E-2,7.2371764E-3,7.0759016E-3,-8.792611E-3,9.899675E-3,-7.842625E-3,1.7608138E-4,1.1750102E-2],"categories":[],"categories_nodes":[],"categories_segments":[],"categories_sizes":[],"default_left":[0,0,0,0,0,0,0,0,0,0,0,0,0],"id":11,"left_children":[1,3,5,-1,7,9,11,-1,-1,-1,-1,-1,-1],"loss_changes":[1.3902924E0,3.5126193E0,2.1611164E0,0E0,2.6416404E0,4.9337454E0,1.8281549E0,0E0,0E0,0E0,0E0,0E0,0E0],"parents":[2147483647,0,0,1,1,2,2,4,4,5,5,6,6],"right_children":[2,4,6,-1,8,10,12,-1,-1,-1,-1,-1,-1],"split_conditions":[-1.222E-1,4.1594263E-2,-5.43E-2,-1.5483059E-2,1E0,1.377E1,2.957E-1,7.0759016E-3,-8.792611E-3,9.899675E-3,-7.842625E-3,1.7608138E-4,1.1750102E-2],"split_indices":[32,17,31,0,24,7,32,0,0,0,0,0,0],"split_type":[0,0,0,0,0,0,0,0,0,0,0,0,0],"sum_hessian":[2.8340574E3,2.78949E2,2.5551084E3,2.0670189E1,2.582788E2,2.5395802E2,2.3011504E3,2.3090015E2,2.7378677E1,4.6252106E1,2.0770592E2,2.2673733E3,3.3777157E1],"tree_param":{"num_deleted":"0","num_feature":"35","num_nodes":"13","size_leaf_vector":"1"}},{"base_weights":[-4.2472337E-3,1.2284293E-1,-7.927535E-3,4.0354855E-2,2.475038E-2,-1.02229975E-1,-1.6401446E-3,-6.5622837E-3,1.1259691E-2,-6.789872E-3,1.6212411E-2,2.6705462E-4,-4.6509434E-3],"categories":[],"categories_nodes":[],"categories_segments":[],"categories_sizes":[],"default_left":[0,0,0,0,0,0,0,0,0,0,0,0,0],"id":12,"left_children":[1,3,5,7,-1,9,11,-1,-1,-1,-1,-1,-1],"loss_changes":[1.276681E0,2.0593958E0,1.5931408E0,2.1309617E0,0E0,2.3613672E0,1.7076776E0,0E0,0E0,0E0,0E0,0E0,0E0],"parents":[2147483647,0,0,1,1,2,2,3,3,5,5,6,6],"right_children":[2,4,6,8,-1,10,12,-1,-1,-1,-1,-1,-1],"split_conditions":[-1.122E-1,1E0,2E0,2.401E1,2.475038E-2,3.114E1,1E0,-6.5622837E-3,1.1259691E-2,-6.789872E-3,1.6212411E-2,2.6705462E-4,-4.6509434E-3],"split_indices":[31,21,34,7,0,7,25,0,0,0,0,0,0],"split_type":[0,0,0,0,0,0,0,0,0,0,0,0,0],"sum_hessian":[2.8492861E3,7.545336E1,2.7738328E3,6.3770855E1,1.1682504E1,1.6745459E2,2.6063782E3,3.1817272E1,3.1953585E1,1.5695488E2,1.0499709E1,2.4171782E3,1.8920003E2],"tree_param":{"num_deleted":"0","num_feature":"35","num_nodes":"13","size_leaf_vector":"1"}},{"base_weights":[-2.6059267E-3,3.2718256E-2,-1.7007157E-2,1.4459561E-2,2.0725387E-1,-2.6908698E-2,8.2292095E-2,2.8504287E-3,-5.9102536E-3,2.3872798E-2,5.1135063E-4,-7.3502883E-3,-6.58925E-4,2.923404E-2,-0E0],"categories":[],"categories_nodes":[],"categories_segments":[],"categories_sizes":[],"default_left":[0,0,0,0,0,0,0,0,0,0,0,0,0,0,0],"id":13,"left_children":[1,3,5,7,9,11,13,-1,-1,-1,-1,-1,-1,-1,-1],"loss_changes":[1.4439833E0,2.4882193E0,1.977668E0,4.169383E0,3.7259722E0,2.9816358E0,7.258214E0,0E0,0E0,0E0,0E0,0E0,0E0,0E0,0E0],"parents":[2147483647,0,0,1,1,2,2,3,3,4,4,5,5,6,6],"right_children":[2,4,6,8,10,12,14,-1,-1,-1,-1,-1,-1,-1,-1],"split_conditions":[-2.61E-2,2.963E1,1E0,9.5650814E-2,-6.29E-2,6.9E-1,6.9E-1,2.8504287E-3,-5.9102536E-3,2.3872798E-2,5.1135063E-4,-7.3502883E-3,-6.58925E-4,2.923404E-2,-0E0],"split_indices":[31,7,28,17,32,10,10,0,0,0,0,0,0,0,0],"split_type":[0,0,0,0,0,0,0,0,0,0,0,0,0,0,0],"sum_hessian":[2.8518584E3,8.155176E2,2.0363407E3,7.418573E2,7.3660324E1,1.8569417E3,1.7939908E2,5.6498956E2,1.7686772E2,2.939166E1,4.4268665E1,1.8578354E2,1.6711581E3,2.3805717E1,1.5559335E2],"tree_param":{"num_deleted":"0","num_feature":"35","num_nodes":"15","size_leaf_vector":"1"}},{"base_weights":[8.8907307E-4,2.0905389E-2,-3.597502E-2,1.9927257E-1,8.564301E-3,1.8786849E-1,-6.699809E-2,1.4911721E-3,1.7198058E-2,-2.1824056E-2,5.862009E-4,5.1841266E-3,2.7954021E-2,-5.5726743E-3,2.7181674E-4],"categories":[],"categories_nodes":[],"categories_segments":[],"categories_sizes":[],"default_left":[0,0,0,0,0,0,0,0,0,0,0,0,0,0,0],"id":14,"left_children":[1,3,5,7,9,11,13,-1,-1,-1,-1,-1,-1,-1,-1],"loss_changes":[2.0958054E0,3.9802585E0,6.8569927E0,2.6824002E0,2.2391639E0,3.3398757E0,2.8743715E0,0E0,0E0,0E0,0E0,0E0,0E0,0E0,0E0],"parents":[2147483647,0,0,1,1,2,2,3,3,4,4,5,5,6,6],"right_children":[2,4,6,8,10,12,14,-1,-1,-1,-1,-1,-1,-1,-1],"split_conditions":[2.9394694E-2,-5.77E-2,3.29E0,9.4E-1,-5.66E-2,8.6E-1,4.7205795E-2,1.4911721E-3,1.7198058E-2,-2.1824056E-2,5.862009E-4,5.1841266E-3,2.7954021E-2,-5.5726743E-3,2.7181674E-4],"split_indices":[33,31,11,10,31,10,33,0,0,0,0,0,0,0,0],"split_type":[0,0,0,0,0,0,0,0,0,0,0,0,0,0,0],"sum_hessian":[2.8484856E3,1.8551696E3,9.9331616E2,1.1644947E2,1.7387201E3,1.1833198E2,8.749842E2,5.5782608E1,6.0666862E1,1.0175124E1,1.7285449E3,9.8597595E1,1.9734385E1,5.4615497E2,3.2882922E2],"tree_param":{"num_deleted":"0","num_feature":"35","num_nodes":"15","size_leaf_vector":"1"}},{"base_weights":[-8.263728E-3,-1.0784562E-2,1.6737717E-1,-7.3036887E-3,-1.7518017E-1,2.831077E-1,-1.7736463E-3,-6.5392087E-4,3.1435483E-3,-2.5006965E-2,-0E0,1.9615272E-2,3.4047316E-3],"categories":[],"categories_nodes":[],"categories_segments":[],"categories_sizes":[],"default_left":[0,0,0,0,0,0,0,0,0,0,0,0,0],"id":15,"left_children":[1,3,5,7,9,11,-1,-1,-1,-1,-1,-1,-1],"loss_changes":[1.1768103E0,1.5065132E0,1.0096375E0,1.086454E0,3.2138739E0,3.4025478E-1,0E0,0E0,0E0,0E0,0E0,0E0,0E0],"parents":[2147483647,0,0,1,1,2,2,3,3,4,4,5,5],"right_children":[2,4,6,8,10,12,-1,-1,-1,-1,-1,-1,-1],"split_conditions":[2.957E-1,2.363E-1,1E0,1E0,2.092E1,1.1128973E-1,-1.7736463E-3,-6.5392087E-4,3.1435483E-3,-2.5006965E-2,-0E0,1.9615272E-2,3.4047316E-3],"split_indices":[32,32,13,23,7,17,0,0,0,0,0,0,0],"split_type":[0,0,0,0,0,0,0,0,0,0,0,0,0],"sum_hessian":[2.8296472E3,2.7933418E3,3.630529E1,2.7394238E3,5.3918022E1,2.4434235E1,1.1871056E1,2.5384697E3,2.0095401E2,1.85859E1,3.5332123E1,1.411547E1,1.0318765E1],"tree_param":{"num_deleted":"0","num_feature":"35","num_nodes":"13","size_leaf_vector":"1"}},{"base_weights":[5.0661904E-3,5.751559E-2,-8.247321E-3,4.1029036E-2,3.6296922E-1,-1.1201926E-1,6.1836024E-4,3.2666975E-3,-8.693822E-3,2.7617754E-4,2.8554726E-2,-2.1229904E-2,-3.7642344E-4,3.1703417E-3,-5.175043E-4],"categories":[],"categories_nodes":[],"categories_segments":[],"categories_sizes":[],"default_left":[0,0,0,0,0,0,0,0,0,0,0,0,0,0,0],"id":16,"left_children":[1,3,5,7,9,11,13,-1,-1,-1,-1,-1,-1,-1,-1],"loss_changes":[1.983769E0,2.6816778E0,2.107732E0,2.8235536E0,1.7763119E0,5.6597185E0,1.4399506E0,0E0,0E0,0E0,0E0,0E0,0E0,0E0,0E0],"parents":[2147483647,0,0,1,1,2,2,3,3,4,4,5,5,6,6],"right_children":[2,4,6,8,10,12,14,-1,-1,-1,-1,-1,-1,-1,-1],"split_conditions":[-6.48E-2,1E0,-4.38E-2,1E0,2.041986E-2,-3.645604E-2,-2.0867676E-1,3.2666975E-3,-8.693822E-3,2.7617754E-4,2.8554726E-2,-2.1229904E-2,-3.7642344E-4,3.1703417E-3,-5.175043E-4],"split_indices":[32,20,32,13,33,15,15,0,0,0,0,0,0,0,0],"split_type":[0,0,0,0,0,0,0,0,0,0,0,0,0,0,0],"sum_hessian":[2.8039558E3,5.745837E2,2.2293723E3,5.477886E2,2.6795113E1,1.7899658E2,2.0503757E3,4.9484613E2,5.294244E1,1.1122193E1,1.5672919E1,4.2878662E1,1.3611792E2,3.1098093E2,1.7393947E3],"tree_param":{"num_deleted":"0","num_feature":"35","num_nodes":"15","size_leaf_vector":"1"}},{"base_weights":[-8.757955E-3,-2.9165389E-3,-7.670908E-2,-4.8777282E-2,7.8411875E-3,-1.5330155E-1,2.9741054E-2,4.803991E-4,-6.9170194E-3,7.797473E-4,-4.6081436E-3,-1.0935702E-2,8.53722E-4,7.0986147E-3,-5.2891676E-3],"categories":[],"categories_nodes":[],"categories_segments":[],"categories_sizes":[],"default_left":[0,0,0,0,0,0,0,0,0,0,0,0,0,0,0],"id":17,"left_children":[1,3,5,7,9,11,13,-1,-1,-1,-1,-1,-1,-1,-1],"loss_changes":[1.0731707E0,1.2988162E0,1.8208586E0,2.6862655E0,1.5839097E0,1.531534E0,1.3738946E0,0E0,0E0,0E0,0E0,0E0,0E0,0E0,0E0],"parents":[2147483647,0,0,1,1,2,2,3,3,4,4,5,5,6,6],"right_children":[2,4,6,8,10,12,14,-1,-1,-1,-1,-1,-1,-1,-1],"split_conditions":[1E0,-2.36E-2,2.4113996E-1,1.3043615E-1,1.622E-1,5.1930255E-1,-3E-4,4.803991E-4,-6.9170194E-3,7.797473E-4,-4.6081436E-3,-1.0935702E-2,8.53722E-4,7.0986147E-3,-5.2891676E-3],"split_indices":[29,30,4,1,32,1,31,0,0,0,0,0,0,0,0],"split_type":[0,0,0,0,0,0,0,0,0,0,0,0,0,0,0],"sum_hessian":[2.8035366E3,2.589345E3,2.1419182E2,5.00145E2,2.0892E3,1.270409E2,8.7150925E1,2.9993228E2,2.002127E2,1.9442941E3,1.4490588E2,9.371272E1,3.332818E1,4.966438E1,3.748655E1],"tree_param":{"num_deleted":"0","num_feature":"35","num_nodes":"15","size_leaf_vector":"1"}},{"base_weights":[7.4301474E-3,1.0961233E-2,-1.5566938E-1,7.0039984E-3,1.6597769E-1,-4.5524323E-1,9.787408E-2,1.2554423E-4,6.099186E-3,-1.1710669E-2,1.2651059E-2,-9.089171E-3,-2.9431075E-2,-8.446146E-3,1.48641495E-2],"categories":[],"categories_nodes":[],"categories_segments":[],"categories_sizes":[],"default_left":[0,0,0,0,0,0,0,0,0,0,0,0,0,0,0],"id":18,"left_children":[1,3,5,7,9,11,13,-1,-1,-1,-1,-1,-1,-1,-1],"loss_changes":[1.5637904E0,1.618782E0,4.5682306E0,1.3409439E0,2.369644E0,5.036359E-1,1.7584249E0,0E0,0E0,0E0,0E0,0E0,0E0,0E0,0E0],"parents":[2147483647,0,0,1,1,2,2,3,3,4,4,5,5,6,6],"right_children":[2,4,6,8,10,12,14,-1,-1,-1,-1,-1,-1,-1,-1],"split_conditions":[1.339E-1,1.022E-1,6.768258E-2,2.003E-1,-7.794912E-1,6.87E0,1.0244381E-1,1.2554423E-4,6.099186E-3,-1.1710669E-2,1.2651059E-2,-9.089171E-3,-2.9431075E-2,-8.446146E-3,1.48641495E-2],"split_indices":[31,31,33,32,4,11,17,0,0,0,0,0,0,0,0],"split_type":[0,0,0,0,0,0,0,0,0,0,0,0,0,0,0],"sum_hessian":[2.8369685E3,2.7807637E3,5.6204803E1,2.7157083E3,6.5055504E1,2.6303028E1,2.9901773E1,2.6187446E3,9.696343E1,1.0293784E1,5.476172E1,1.0626867E1,1.5676161E1,1.1782704E1,1.811907E1],"tree_param":{"num_deleted":"0","num_feature":"35","num_nodes":"15","size_leaf_vector":"1"}},{"base_weights":[-6.1647124E-3,-1.3569996E-2,6.2905975E-2,3.784999E-2,-2.4660125E-2,-1.5844074E-1,1.3850985E-1,-2.0854918E-3,4.869208E-3,8.427591E-4,-2.2632235E-3,-2.9021513E-3,-2.5814224E-2,9.490405E-3,-1.33672E-2],"categories":[],"categories_nodes":[],"categories_segments":[],"categories_sizes":[],"default_left":[0,0,0,0,0,0,0,0,0,0,0,0,0,0,0],"id":19,"left_children":[1,3,5,7,9,11,13,-1,-1,-1,-1,-1,-1,-1,-1],"loss_changes":[1.4089873E0,1.4412751E0,4.444792E0,2.128079E0,1.807704E0,2.062055E0,4.168911E0,0E0,0E0,0E0,0E0,0E0,0E0,0E0,0E0],"parents":[2147483647,0,0,1,1,2,2,3,3,4,4,5,5,6,6],"right_children":[2,4,6,8,10,12,14,-1,-1,-1,-1,-1,-1,-1,-1],"split_conditions":[1E0,1.5232958E-2,1E0,2.8336658E-3,-2.61E-2,1E0,2.24E0,-2.0854918E-3,4.869208E-3,8.427591E-4,-2.2632235E-3,-2.9021513E-3,-2.5814224E-2,9.490405E-3,-1.33672E-2],"split_indices":[20,33,12,14,31,9,10,0,0,0,0,0,0,0,0],"split_type":[0,0,0,0,0,0,0,0,0,0,0,0,0,0,0],"sum_hessian":[2.8002417E3,2.5363538E3,2.6388794E2,4.415562E2,2.0947976E3,6.522335E1,1.9866457E2,1.8552568E2,2.5603055E2,6.8683075E2,1.4079669E3,5.293204E1,1.2291312E1,1.7793822E2,2.072636E1],"tree_param":{"num_deleted":"0","num_feature":"35","num_nodes":"15","size_leaf_vector":"1"}},{"base_weights":[5.5767056E-3,6.933069E-5,6.523735E-2,-1.5011502E-2,3.5554107E-2,3.6220554E-1,-3.2521766E-2,-5.6757865E-4,-1.9147074E-2,3.5078411E-3,-6.068919E-4,2.2188796E-2,-0E0,-5.289862E-3,2.2565914E-2],"categories":[],"categories_nodes":[],"categories_segments":[],"categories_sizes":[],"default_left":[0,0,0,0,0,0,0,0,0,0,0,0,0,0,0],"id":20,"left_children":[1,3,5,7,9,11,13,-1,-1,-1,-1,-1,-1,-1,-1],"loss_changes":[8.93261E-1,1.3960254E0,6.867662E0,2.2322488E0,1.3206905E0,1.8091984E0,6.010127E0,0E0,0E0,0E0,0E0,0E0,0E0,0E0,0E0],"parents":[2147483647,0,0,1,1,2,2,3,3,4,4,5,5,6,6],"right_children":[2,4,6,8,10,12,14,-1,-1,-1,-1,-1,-1,-1,-1],"split_conditions":[1E0,1.47E0,3.46E0,1.339E-1,2.601E1,2.6077318E-1,2.892E1,-5.6757865E-4,-1.9147074E-2,3.5078411E-3,-6.068919E-4,2.2188796E-2,-0E0,-5.289862E-3,2.2565914E-2],"split_indices":[23,10,11,31,7,15,7,0,0,0,0,0,0,0,0],"split_type":[0,0,0,0,0,0,0,0,0,0,0,0,0,0,0],"sum_hessian":[2.8169958E3,2.5875195E3,2.2947641E2,1.806327E3,7.811925E2,5.7429432E1,1.7204698E2,1.7909021E3,1.5424926E1,4.585246E2,3.226679E2,4.7110416E1,1.0319016E1,1.5099428E2,2.1052692E1],"tree_param":{"num_deleted":"0","num_feature":"35","num_nodes":"15","size_leaf_vector":"1"}},{"base_weights":[4.3334756E-3,4.327407E-2,-2.0544522E-2,-6.466848E-2,6.794134E-2,-1.20672904E-1,-8.22546E-3,1.0221913E-2,-6.2342556E-3,1.3358908E-3,8.166566E-3,7.5744907E-3,-9.985159E-3,-9.503941E-5,-1.1269958E-2],"categories":[],"categories_nodes":[],"categories_segments":[],"categories_sizes":[],"default_left":[0,0,0,0,0,0,1,0,0,0,0,0,0,0,0],"id":21,"left_children":[1,3,5,7,9,11,13,-1,-1,-1,-1,-1,-1,-1,-1],"loss_changes":[2.7157714E0,2.9243789E0,2.0261276E0,3.2257907E0,3.4255881E0,3.9527967E0,1.9674151E0,0E0,0E0,0E0,0E0,0E0,0E0,0E0,0E0],"parents":[2147483647,0,0,1,1,2,2,3,3,4,4,5,5,6,6],"right_children":[2,4,6,8,10,12,14,-1,-1,-1,-1,-1,-1,-1,-1],"split_conditions":[-1.68E-2,3.28E0,6E0,2.63E0,-4.79E-2,-5.929494E-1,1.219E1,1.0221913E-2,-6.2342556E-3,1.3358908E-3,8.166566E-3,7.5744907E-3,-9.985159E-3,-9.503941E-5,-1.1269958E-2],"split_indices":[32,11,34,11,32,2,11,0,0,0,0,0,0,0,0],"split_type":[0,0,0,0,0,0,0,0,0,0,0,0,0,0,0],"sum_hessian":[2.7896875E3,1.0950326E3,1.6946549E3,1.9961919E2,8.9541345E2,1.80246E2,1.5144089E3,3.4443165E1,1.6517603E2,6.2977356E2,2.6563986E2,3.893139E1,1.4131462E2,1.4747708E3,3.9638165E1],"tree_param":{"num_deleted":"0","num_feature":"35","num_nodes":"15","size_leaf_vector":"1"}},{"base_weights":[8.300605E-3,6.690338E-2,-5.167532E-3,1.7070404E-1,-3.0737529E-2,-8.179253E-3,2.248837E-2,1.1991037E-2,2.6178595E-3,3.5282222E-3,-1.0321168E-2,-0E0,-6.5393387E-3],"categories":[],"categories_nodes":[],"categories_segments":[],"categories_sizes":[],"default_left":[0,0,0,1,0,0,0,0,0,0,0,0,0],"id":22,"left_children":[1,3,5,7,9,11,-1,-1,-1,-1,-1,-1,-1],"loss_changes":[2.217507E0,5.39268E0,2.8607152E0,1.9430513E0,4.864865E0,2.3032978E0,0E0,0E0,0E0,0E0,0E0,0E0,0E0],"parents":[2147483647,0,0,1,1,2,2,3,3,4,4,5,5],"right_children":[2,4,6,8,10,12,-1,-1,-1,-1,-1,-1,-1],"split_conditions":[-4.23E-2,2.4973117E-2,9.67242E-2,4.97E0,4.1502342E-1,1E0,2.248837E-2,1.1991037E-2,2.6178595E-3,3.5282222E-3,-1.0321168E-2,-0E0,-6.5393387E-3],"split_indices":[31,1,33,11,2,25,0,0,0,0,0,0,0],"split_type":[0,0,0,0,0,0,0,0,0,0,0,0,0],"sum_hessian":[2.7690188E3,5.2365216E2,2.2453665E3,2.5593927E2,2.677129E2,2.2326672E3,1.2699432E1,1.5826082E2,9.767846E1,1.6837738E2,9.93355E1,2.0902761E3,1.4239107E2],"tree_param":{"num_deleted":"0","num_feature":"35","num_nodes":"13","size_leaf_vector":"1"}},{"base_weights":[3.6074321E-3,5.224791E-2,-7.3823025E-3,3.6898024E-2,3.0969042E-1,-6.531719E-2,3.355282E-3,4.298932E-3,-1.8540573E-3,4.601293E-3,2.3229998E-2,-4.5808754E-3,1.6943159E-2,1.8377168E-2,-6.4732674E-5],"categories":[],"categories_nodes":[],"categories_segments":[],"categories_sizes":[],"default_left":[0,0,0,0,0,0,0,0,0,0,0,0,0,0,0],"id":23,"left_children":[1,3,5,7,9,11,13,-1,-1,-1,-1,-1,-1,-1,-1],"loss_changes":[1.5347595E0,1.9088508E0,1.4617808E0,1.8538032E0,6.1774254E-1,3.8076458E0,3.458337E0,0E0,0E0,0E0,0E0,0E0,0E0,0E0,0E0],"parents":[2147483647,0,0,1,1,2,2,3,3,4,4,5,5,6,6],"right_children":[2,4,6,8,10,12,14,-1,-1,-1,-1,-1,-1,-1,-1],"split_conditions":[1.507122E-2,1E0,3E0,7.5E-3,2.8E-3,1.4338063E-1,-1.679E-1,4.298932E-3,-1.8540573E-3,4.601293E-3,2.3229998E-2,-4.5808754E-3,1.6943159E-2,1.8377168E-2,-6.4732674E-5],"split_indices":[33,27,34,31,31,17,32,0,0,0,0,0,0,0,0],"split_type":[0,0,0,0,0,0,0,0,0,0,0,0,0,0,0],"sum_hessian":[2.8274585E3,5.287883E2,2.2986702E3,5.0194556E2,2.684276E1,3.6590475E2,1.9327655E3,3.057174E2,1.9622816E2,1.3165528E1,1.3677232E1,3.4543732E2,2.046746E1,2.4738071E1,1.9080275E3],"tree_param":{"num_deleted":"0","num_feature":"35","num_nodes":"15","size_leaf_vector":"1"}},{"base_weights":[-1.0386223E-3,-2.3777483E-2,1.1742534E-2,-4.9253933E-2,7.975714E-2,2.7809352E-2,-1.2213068E-1,4.37451E-3,-3.664424E-3,2.0767453E-3,1.6946942E-2,5.210607E-4,5.537086E-3,-1.7663336E-3,-1.4101743E-2],"categories":[],"categories_nodes":[],"categories_segments":[],"categories_sizes":[],"default_left":[0,0,0,0,0,0,0,0,0,0,0,0,0,0,0],"id":24,"left_children":[1,3,5,7,9,11,13,-1,-1,-1,-1,-1,-1,-1,-1],"loss_changes":[8.1886727E-1,2.6803288E0,3.7772255E0,2.7056015E0,1.7573779E0,2.231455E0,2.429835E0,0E0,0E0,0E0,0E0,0E0,0E0,0E0,0E0],"parents":[2147483647,0,0,1,1,2,2,3,3,4,4,5,5,6,6],"right_children":[2,4,6,8,10,12,14,-1,-1,-1,-1,-1,-1,-1,-1],"split_conditions":[-8.6E-3,2.605E1,2.8161438E1,-1.193E-1,1E0,8.9724576E-1,3.58E-2,4.37451E-3,-3.664424E-3,2.0767453E-3,1.6946942E-2,5.210607E-4,5.537086E-3,-1.7663336E-3,-1.4101743E-2],"split_indices":[30,7,7,32,19,2,30,0,0,0,0,0,0,0,0],"split_type":[0,0,0,0,0,0,0,0,0,0,0,0,0,0,0],"sum_hessian":[2.7949038E3,1.0194563E3,1.7754474E3,8.2243567E2,1.9702066E2,1.5892415E3,1.8620596E2,1.1944005E2,7.029956E2,1.7439198E2,2.2628666E1,1.3196993E3,2.6954208E2,1.2350762E2,6.2698338E1],"tree_param":{"num_deleted":"0","num_feature":"35","num_nodes":"15","size_leaf_vector":"1"}},{"base_weights":[-1.6542735E-3,8.862115E-3,-3.405366E-2,4.609324E-3,2.4387006E-1,-1.8275982E-1,3.920906E-3,3.7674466E-4,-1.2208105E-2,2.001268E-2,-2.2303087E-3,-1.4667856E-2,2.071249E-3,5.9214453E-3,-2.0672425E-3],"categories":[],"categories_nodes":[],"categories_segments":[],"categories_sizes":[],"default_left":[0,0,0,0,0,0,0,0,0,0,0,0,0,0,0],"id":25,"left_children":[1,3,5,7,9,11,13,-1,-1,-1,-1,-1,-1,-1,-1],"loss_changes":[9.776305E-1,2.0001729E0,4.0751915E0,1.4061053E0,1.8058913E0,3.7642798E0,2.9483488E0,0E0,0E0,0E0,0E0,0E0,0E0,0E0,0E0],"parents":[2147483647,0,0,1,1,2,2,3,3,4,4,5,5,6,6],"right_children":[2,4,6,8,10,12,14,-1,-1,-1,-1,-1,-1,-1,-1],"split_conditions":[1.8E-2,1.71E-2,-6.215293E-1,1.64E-2,4.207598E-1,9.399597E-2,-3.8486266E-1,3.7674466E-4,-1.2208105E-2,2.001268E-2,-2.2303087E-3,-1.4667856E-2,2.071249E-3,5.9214453E-3,-2.0672425E-3],"split_indices":[30,30,0,30,0,17,3,0,0,0,0,0,0,0,0],"split_type":[0,0,0,0,0,0,0,0,0,0,0,0,0,0,0],"sum_hessian":[2.830416E3,2.1257283E3,7.046877E2,2.0910354E3,3.469295E1,1.4525024E2,5.594374E2,2.0696753E3,2.1359938E1,2.336987E1,1.1323081E1,9.855285E1,4.6697403E1,1.611666E2,3.982708E2],"tree_param":{"num_deleted":"0","num_feature":"35","num_nodes":"15","size_leaf_vector":"1"}},{"base_weights":[8.584103E-3,3.287289E-2,-1.5192988E-2,-1.4909187E-1,4.432605E-2,-3.1960152E-2,1.47082E-1,-2.8432833E-3,-2.4298798E-2,6.026819E-3,1.0129651E-3,-1.081845E-3,-9.421784E-3,1.4858632E-2,-8.862504E-3],"categories":[],"categories_nodes":[],"categories_segments":[],"categories_sizes":[],"default_left":[0,0,0,0,0,0,0,0,0,0,0,0,0,0,0],"id":26,"left_children":[1,3,5,7,9,11,13,-1,-1,-1,-1,-1,-1,-1,-1],"loss_changes":[1.613153E0,2.8395796E0,3.7389917E0,2.1748695E0,2.3222718E0,1.9370501E0,6.338516E0,0E0,0E0,0E0,0E0,0E0,0E0,0E0,0E0],"parents":[2147483647,0,0,1,1,2,2,3,3,4,4,5,5,6,6],"right_children":[2,4,6,8,10,12,14,-1,-1,-1,-1,-1,-1,-1,-1],"split_conditions":[7E0,-1.2137727E0,1E0,4.5630064E-2,-1.97E-2,1.344395E0,1.0811787E-1,-2.8432833E-3,-2.4298798E-2,6.026819E-3,1.0129651E-3,-1.081845E-3,-9.421784E-3,1.4858632E-2,-8.862504E-3],"split_indices":[34,0,27,33,30,3,17,0,0,0,0,0,0,0,0],"split_type":[0,0,0,0,0,0,0,0,0,0,0,0,0,0,0],"sum_hessian":[2.776086E3,1.3834794E3,1.3926066E3,7.862544E1,1.3048539E3,1.2657104E3,1.2689609E2,6.380973E1,1.4815717E1,3.0722E2,9.97634E2,1.1914406E3,7.426996E1,8.786179E1,3.9034298E1],"tree_param":{"num_deleted":"0","num_feature":"35","num_nodes":"15","size_leaf_vector":"1"}},{"base_weights":[4.4771014E-3,2.5265622E-3,1.4885925E-1,2.2276368E-2,-1.0074408E-2,2.9727945E-1,-5.056564E-3,2.0099233E-3,-3.7233457E-3,-1.3381593E-2,-1.8189696E-4,1.7580054E-3,2.390822E-2],"categories":[],"categories_nodes":[],"categories_segments":[],"categories_sizes":[],"default_left":[0,0,0,0,0,0,0,0,0,0,0,0,0],"id":27,"left_children":[1,3,5,7,9,11,-1,-1,-1,-1,-1,-1,-1],"loss_changes":[7.2379357E-1,7.0483565E-1,1.4053982E0,1.908745E0,2.679484E0,8.221977E-1,0E0,0E0,0E0,0E0,0E0,0E0,0E0],"parents":[2147483647,0,0,1,1,2,2,3,3,4,4,5,5],"right_children":[2,4,6,8,10,12,-1,-1,-1,-1,-1,-1,-1],"split_conditions":[2.957E-1,-1.68E-2,7.360646E-2,1.5854427E-1,2.49E0,1.2E1,-5.056564E-3,2.0099233E-3,-3.7233457E-3,-1.3381593E-2,-1.8189696E-4,1.7580054E-3,2.390822E-2],"split_indices":[32,32,33,14,11,34,0,0,0,0,0,0,0],"split_type":[0,0,0,0,0,0,0,0,0,0,0,0,0],"sum_hessian":[2.8391885E3,2.8057644E3,3.342411E1,1.1080315E3,1.6977329E3,2.2108898E1,1.1315213E1,9.397008E2,1.6833072E2,3.850926E1,1.6592236E3,1.0643717E1,1.1465182E1],"tree_param":{"num_deleted":"0","num_feature":"35","num_nodes":"13","size_leaf_vector":"1"}},{"base_weights":[-1.4982927E-3,-1.9324562E-2,1.438895E-2,-4.9053676E-2,3.8983673E-2,4.362017E-2,-3.938732E-2,-1.8432584E-3,-1.2272339E-2,-2.0114882E-3,4.732882E-3,1.24621345E-2,1.6226837E-3,-1.5291536E-2,-1.2164073E-3],"categories":[],"categories_nodes":[],"categories_segments":[],"categories_sizes":[],"default_left":[0,0,0,0,0,0,0,0,0,0,0,0,0,0,0],"id":28,"left_children":[1,3,5,7,9,11,13,-1,-1,-1,-1,-1,-1,-1,-1],"loss_changes":[7.947789E-1,2.317893E0,2.3059158E0,1.9780259E0,1.993814E0,2.044415E0,1.8746977E0,0E0,0E0,0E0,0E0,0E0,0E0,0E0,0E0],"parents":[2147483647,0,0,1,1,2,2,3,3,4,4,5,5,6,6],"right_children":[2,4,6,8,10,12,14,-1,-1,-1,-1,-1,-1,-1,-1],"split_conditions":[-8E-4,3.9097416E-1,3.2825345E-1,-2.9E-3,-1.09085016E-1,-2.4116206E-1,-4.6E-2,-1.8432584E-3,-1.2272339E-2,-2.0114882E-3,4.732882E-3,1.24621345E-2,1.6226837E-3,-1.5291536E-2,-1.2164073E-3],"split_indices":[30,3,3,30,1,14,31,0,0,0,0,0,0,0,0],"split_type":[0,0,0,0,0,0,0,0,0,0,0,0,0,0,0],"sum_hessian":[2.7956255E3,1.3321466E3,1.4634788E3,8.880819E2,4.4406476E2,9.542583E2,5.0922046E2,8.397021E2,4.837979E1,1.796928E2,2.6437198E2,4.5747906E1,9.0851044E2,2.4431988E1,4.8478848E2],"tree_param":{"num_deleted":"0","num_feature":"35","num_nodes":"15","size_leaf_vector":"1"}},{"base_weights":[1.4207099E-3,-1.5331375E-3,9.504231E-2,8.995155E-3,-2.9157402E-2,2.545511E-1,-7.126663E-2,1.009358E-3,-5.4696733E-3,-8.000496E-3,-0E0,2.1859577E-2,1.4249556E-3,-1.7808868E-2,5.2185304E-4],"categories":[],"categories_nodes":[],"categories_segments":[],"categories_sizes":[],"default_left":[0,0,0,0,1,1,1,0,0,0,0,0,0,0,0],"id":29,"left_children":[1,3,5,7,9,11,13,-1,-1,-1,-1,-1,-1,-1,-1],"loss_changes":[8.181055E-1,7.9537964E-1,2.5102491E0,2.5308125E0,2.8999243E0,1.7340424E0,1.1902815E0,0E0,0E0,0E0,0E0,0E0,0E0,0E0,0E0],"parents":[2147483647,0,0,1,1,2,2,3,3,4,4,5,5,6,6],"right_children":[2,4,6,8,10,12,14,-1,-1,-1,-1,-1,-1,-1,-1],"split_conditions":[6.38E-2,2.62E-2,2.1309045E-1,1E0,-6.539884E-1,6.08E0,5.15E0,1.009358E-3,-5.4696733E-3,-8.000496E-3,-0E0,2.1859577E-2,1.4249556E-3,-1.7808868E-2,5.2185304E-4],"split_indices":[30,31,5,24,4,11,11,0,0,0,0,0,0,0,0],"split_type":[0,0,0,0,0,0,0,0,0,0,0,0,0,0,0],"sum_hessian":[2.787726E3,2.6982373E3,8.9488884E1,1.941035E3,7.572023E2,4.6942066E1,4.2546814E1,1.7780024E3,1.6303261E2,1.3744038E2,6.1976184E2,2.4224108E1,2.2717958E1,1.0097143E1,3.2449673E1],"tree_param":{"num_deleted":"0","num_feature":"35","num_nodes":"15","size_leaf_vector":"1"}},{"base_weights":[4.701032E-3,8.92384E-3,3.23208E-3,-7.423464E-2,7.1496186E-3,8.042384E-3,-1.00330915E-2,4.0027145E-3,1.09785076E-4],"categories":[],"categories_nodes":[],"categories_segments":[],"categories_sizes":[],"default_left":[0,0,0,0,0,0,0,0,0],"id":30,"left_children":[1,-1,3,5,7,-1,-1,-1,-1],"loss_changes":[6.316149E-1,0E0,8.2056046E-1,3.896079E0,9.2816764E-1,0E0,0E0,0E0,0E0],"parents":[2147483647,0,0,2,2,3,3,4,4],"right_children":[2,-1,4,6,8,-1,-1,-1,-1],"split_conditions":[-3.095E-1,8.92384E-3,-1.679E-1,1.6342996E-2,-1.168E-1,8.042384E-3,-1.00330915E-2,4.0027145E-3,1.09785076E-4],"split_indices":[32,0,32,15,32,0,0,0,0],"split_type":[0,0,0,0,0,0,0,0,0],"sum_hessian":[2.8314958E3,1.9871204E1,2.8116248E3,1.2833356E2,2.683291E3,4.340254E1,8.493102E1,1.633436E2,2.5199475E3],"tree_param":{"num_deleted":"0","num_feature":"35","num_nodes":"9","size_leaf_vector":"1"}},{"base_weights":[-4.6909535E-3,2.7269674E-3,-1.0379512E-1,-1.14963325E-2,3.236091E-2,2.7428646E-2,-4.6423715E-1,-9.1680646E-4,2.8720573E-3,-2.3484882E-4,3.2755532E-3,2.6618546E-2,-2.4591426E-3,-3.2662097E-2,-5.859822E-3],"categories":[],"categories_nodes":[],"categories_segments":[],"categories_sizes":[],"default_left":[0,0,0,0,0,0,0,0,0,0,0,0,0,0,0],"id":31,"left_children":[1,3,5,7,9,11,13,-1,-1,-1,-1,-1,-1,-1,-1],"loss_changes":[2.1298695E0,1.1182412E0,9.769337E0,8.135701E-1,1.0918196E0,5.9839573E0,3.1389084E0,0E0,0E0,0E0,0E0,0E0,0E0,0E0,0E0],"parents":[2147483647,0,0,1,1,2,2,3,3,4,4,5,5,6,6],"right_children":[2,4,6,8,10,12,14,-1,-1,-1,-1,-1,-1,-1,-1],"split_conditions":[1E0,8.117514E-2,1.0981849E-1,1E0,-1.9E-3,4.644896E-2,1.56E-2,-9.1680646E-4,2.8720573E-3,-2.3484882E-4,3.2755532E-3,2.6618546E-2,-2.4591426E-3,-3.2662097E-2,-5.859822E-3],"split_indices":[19,14,14,24,30,17,31,0,0,0,0,0,0,0,0],"split_type":[0,0,0,0,0,0,0,0,0,0,0,0,0,0,0],"sum_hessian":[2.8270774E3,2.626418E3,2.0065941E2,1.7636599E3,8.627581E2,1.4676453E2,5.3894882E1,1.6117347E3,1.5192514E2,4.0065234E2,4.6210577E2,1.9410227E1,1.273543E2,3.3388058E1,2.0506824E1],"tree_param":{"num_deleted":"0","num_feature":"35","num_nodes":"15","size_leaf_vector":"1"}},{"base_weights":[2.1850395E-3,-1.6645081E-3,6.563719E-2,-8.071847E-3,5.9504595E-2,-5.1760647E-2,2.380258E-1,-6.5571285E-4,5.9546083E-3,5.1367762E-3,-2.2658506E-2,4.7072484E-3,-8.677329E-3,-7.2252313E-3,1.582856E-2],"categories":[],"categories_nodes":[],"categories_segments":[],"categories_sizes":[],"default_left":[0,0,0,0,0,0,0,0,0,0,0,0,0,0,0],"id":32,"left_children":[1,3,5,7,9,11,13,-1,-1,-1,-1,-1,-1,-1,-1],"loss_changes":[7.1569437E-1,1.0063648E0,3.4959521E0,1.481592E0,5.2412167E0,1.8108777E0,2.2282052E0,0E0,0E0,0E0,0E0,0E0,0E0,0E0,0E0],"parents":[2147483647,0,0,1,1,2,2,3,3,4,4,5,5,6,6],"right_children":[2,4,6,8,10,12,14,-1,-1,-1,-1,-1,-1,-1,-1],"split_conditions":[4.77E-2,4.7205795E-2,1.3679439E-1,7.82E-2,1E0,1.45E0,1.82E-2,-6.5571285E-4,5.9546083E-3,5.1367762E-3,-2.2658506E-2,4.7072484E-3,-8.677329E-3,-7.2252313E-3,1.582856E-2],"split_indices":[30,33,0,31,24,10,31,0,0,0,0,0,0,0,0],"split_type":[0,0,0,0,0,0,0,0,0,0,0,0,0,0,0],"sum_hessian":[2.797628E3,2.631097E3,1.6653091E2,2.3898113E3,2.4128578E2,9.775703E1,6.8773895E1,2.3033074E3,8.650379E1,2.2415865E2,1.7127129E1,4.270987E1,5.5047153E1,1.0488322E1,5.8285572E1],"tree_param":{"num_deleted":"0","num_feature":"35","num_nodes":"15","size_leaf_vector":"1"}},{"base_weights":[-7.9688133E-4,9.098743E-3,-3.2645453E-2,1.5015524E-3,1.0386835E-1,-1.258365E-1,1.1573211E-2,-1.9940666E-3,1.1355142E-3,-2.571317E-2,8.351069E-3,-1.6335391E-3,-1.833694E-2,3.0801909E-3,-6.6502164E-3],"categories":[],"categories_nodes":[],"categories_segments":[],"categories_sizes":[],"default_left":[0,0,0,0,0,0,0,0,0,0,0,0,0,0,0],"id":33,"left_children":[1,3,5,7,9,11,13,-1,-1,-1,-1,-1,-1,-1,-1],"loss_changes":[8.992678E-1,1.4854316E0,2.8587255E0,1.7335253E0,5.91088E0,4.779649E0,3.2862391E0,0E0,0E0,0E0,0E0,0E0,0E0,0E0,0E0],"parents":[2147483647,0,0,1,1,2,2,3,3,4,4,5,5,6,6],"right_children":[2,4,6,8,10,12,14,-1,-1,-1,-1,-1,-1,-1,-1],"split_conditions":[1.8E-2,1E0,2.3266578E-2,-3.57895E-1,-3.477386E-1,2.1052545E-2,2.685E1,-1.9940666E-3,1.1355142E-3,-2.571317E-2,8.351069E-3,-1.6335391E-3,-1.833694E-2,3.0801909E-3,-6.6502164E-3],"split_indices":[30,25,33,3,15,33,7,0,0,0,0,0,0,0,0],"split_type":[0,0,0,0,0,0,0,0,0,0,0,0,0,0,0],"sum_hessian":[2.8140566E3,2.1355408E3,6.785158E2,1.9828756E3,1.5266512E2,2.2139224E2,4.5712357E2,6.635969E2,1.3192787E3,1.2755537E1,1.3990958E2,1.6196544E2,5.9426804E1,3.426001E2,1.1452345E2],"tree_param":{"num_deleted":"0","num_feature":"35","num_nodes":"15","size_leaf_vector":"1"}},{"base_weights":[5.1466026E-4,-5.103135E-3,1.3356085E-1,1.9184062E-1,-7.6226564E-3,-0E0,3.2192656E-1,1.6124515E-2,2.79944E-3,1.101048E-3,-9.7045314E-4,8.847117E-3,-5.292318E-3,-0E0,2.17946E-2],"categories":[],"categories_nodes":[],"categories_segments":[],"categories_sizes":[],"default_left":[0,0,0,0,0,0,0,0,0,0,0,0,0,0,0],"id":34,"left_children":[1,3,5,7,9,11,13,-1,-1,-1,-1,-1,-1,-1,-1],"loss_changes":[2.1406488E0,1.2302605E0,2.909333E0,3.4570765E-1,9.186741E-1,1.3155717E0,1.8638916E0,0E0,0E0,0E0,0E0,0E0,0E0,0E0,0E0],"parents":[2147483647,0,0,1,1,2,2,3,3,4,4,5,5,6,6],"right_children":[2,4,6,8,10,12,14,-1,-1,-1,-1,-1,-1,-1,-1],"split_conditions":[5.61E-2,-1.9493905E0,1.8851323E-1,9.4542354E-2,-2.8E-2,4.45E-2,3.9E-2,1.6124515E-2,2.79944E-3,1.101048E-3,-9.7045314E-4,8.847117E-3,-5.292318E-3,-0E0,2.17946E-2],"split_indices":[30,1,0,0,31,31,31,0,0,0,0,0,0,0,0],"split_type":[0,0,0,0,0,0,0,0,0,0,0,0,0,0,0],"sum_hessian":[2.7761812E3,2.6610247E3,1.1515661E2,3.0156862E1,2.6308677E3,6.80907E1,4.7065914E1,1.2796273E1,1.736059E1,7.361387E2,1.894729E3,2.5377033E1,4.271366E1,1.2038452E1,3.5027462E1],"tree_param":{"num_deleted":"0","num_feature":"35","num_nodes":"15","size_leaf_vector":"1"}},{"base_weights":[4.1078217E-3,-2.1332562E-2,1.9074809E-2,5.3806264E-2,-5.4040655E-2,7.069023E-2,-9.959486E-4,-1.0188242E-2,5.379866E-3,4.5460304E-3,-3.7288014E-3,2.1873878E-3,1.4516251E-2,-2.4985746E-3,1.4791228E-3],"categories":[],"categories_nodes":[],"categories_segments":[],"categories_sizes":[],"default_left":[0,0,0,0,0,0,0,0,0,0,0,0,0,0,0],"id":35,"left_children":[1,3,5,7,9,11,13,-1,-1,-1,-1,-1,-1,-1,-1],"loss_changes":[1.0736034E0,2.5422244E0,1.8885641E0,4.257969E0,2.156728E0,2.8261127E0,1.932102E0,0E0,0E0,0E0,0E0,0E0,0E0,0E0,0E0],"parents":[2147483647,0,0,1,1,2,2,3,3,4,4,5,5,6,6],"right_children":[2,4,6,8,10,12,14,-1,-1,-1,-1,-1,-1,-1,-1],"split_conditions":[-8.6E-3,-4.5857072E-1,-4.131346E-1,-2.0378242E-1,-1.289E-1,1E0,-1.94E-2,-1.0188242E-2,5.379866E-3,4.5460304E-3,-3.7288014E-3,2.1873878E-3,1.4516251E-2,-2.4985746E-3,1.4791228E-3],"split_indices":[30,2,4,14,32,24,32,0,0,0,0,0,0,0,0],"split_type":[0,0,0,0,0,0,0,0,0,0,0,0,0,0,0],"sum_hessian":[2.820485E3,1.0321829E3,1.7883021E3,3.0821127E2,7.239716E2,5.0695908E2,1.281343E3,5.1159187E1,2.570521E2,8.638631E1,6.375853E2,4.5466168E2,5.22974E1,4.985552E2,7.827879E2],"tree_param":{"num_deleted":"0","num_feature":"35","num_nodes":"15","size_leaf_vector":"1"}},{"base_weights":[-3.3595439E-3,-1.3642568E-3,-2.1948503E-1,-4.3127793E-3,1.8567115E-1,-0E0,-1.8696692E-2,-4.2605857E-4,3.9056458E-3,1.50074735E-2,-4.4578696E-3],"categories":[],"categories_nodes":[],"categories_segments":[],"categories_sizes":[],"default_left":[0,0,0,0,0,0,0,0,0,0,0],"id":36,"left_children":[1,3,5,7,9,-1,-1,-1,-1,-1,-1],"loss_changes":[1.0919545E0,1.4359075E0,6.640824E-1,9.1194606E-1,1.4011154E0,0E0,0E0,0E0,0E0,0E0,0E0],"parents":[2147483647,0,0,1,1,2,2,3,3,4,4],"right_children":[2,4,6,8,10,-1,-1,-1,-1,-1,-1],"split_conditions":[1.841E-1,1.249E-1,6.97E0,1.528305E-1,5.5009954E-2,-0E0,-1.8696692E-2,-4.2605857E-4,3.9056458E-3,1.50074735E-2,-4.4578696E-3],"split_indices":[31,31,11,17,14,0,0,0,0,0,0],"split_type":[0,0,0,0,0,0,0,0,0,0,0],"sum_hessian":[2.7879343E3,2.7657207E3,2.2213562E1,2.7263909E3,3.9329994E1,1.0466586E1,1.1746975E1,2.6005764E3,1.2581442E2,2.8984035E1,1.034596E1],"tree_param":{"num_deleted":"0","num_feature":"35","num_nodes":"11","size_leaf_vector":"1"}},{"base_weights":[-8.2421815E-3,-6.689914E-2,-1.8715992E-3,2.0407166E-1,-1.07209325E-1,3.5904005E-1,-5.2607567E-3,-0E0,2.8925229E-2,-7.6537924E-3,6.1310893E-3,2.5008852E-2,7.097978E-3,1.6075226E-3,-7.8639353E-4],"categories":[],"categories_nodes":[],"categories_segments":[],"categories_sizes":[],"default_left":[0,0,0,0,0,0,0,0,0,0,0,0,0,0,0],"id":37,"left_children":[1,3,5,7,9,11,13,-1,-1,-1,-1,-1,-1,-1,-1],"loss_changes":[1.0086778E0,2.8764758E0,2.9158626E0,2.7563074E0,2.4967096E0,2.8656387E-1,9.7351235E-1,0E0,0E0,0E0,0E0,0E0,0E0,0E0,0E0],"parents":[2147483647,0,0,1,1,2,2,3,3,4,4,5,5,6,6],"right_children":[2,4,6,8,10,12,14,-1,-1,-1,-1,-1,-1,-1,-1],"split_conditions":[-3.87E-2,7.4E-1,-3.7E-2,3.2845177E-2,1.4001061E0,8.226401E-2,-6.2608093E-1,-0E0,2.8925229E-2,-7.6537924E-3,6.1310893E-3,2.5008852E-2,7.097978E-3,1.6075226E-3,-7.8639353E-4],"split_indices":[30,10,30,33,2,1,3,0,0,0,0,0,0,0,0],"split_type":[0,0,0,0,0,0,0,0,0,0,0,0,0,0,0],"sum_hessian":[2.79067E3,2.6477493E2,2.525895E3,3.2155403E1,2.3261954E2,2.1150116E1,2.5047449E3,2.0793665E1,1.1361737E1,1.9601172E2,3.6607834E1,1.063092E1,1.0519196E1,5.366889E2,1.968056E3],"tree_param":{"num_deleted":"0","num_feature":"35","num_nodes":"15","size_leaf_vector":"1"}},{"base_weights":[-3.028028E-3,2.5880853E-2,-2.21642E-2,3.509836E-1,1.8325627E-2,-2.50844E-1,-1.715468E-2,2.8279766E-2,4.5742653E-3,5.9859484E-4,2.094294E-2,-2.2077892E-2,-1.8304622E-3,-1.1258482E-2,-5.9949857E-4],"categories":[],"categories_nodes":[],"categories_segments":[],"categories_sizes":[],"default_left":[0,0,0,0,1,0,0,0,0,0,0,0,0,0,0],"id":38,"left_children":[1,3,5,7,9,11,13,-1,-1,-1,-1,-1,-1,-1,-1],"loss_changes":[1.5334154E0,2.498497E0,1.7864816E0,9.179561E-1,2.5094512E0,1.125926E0,1.6485672E0,0E0,0E0,0E0,0E0,0E0,0E0,0E0,0E0],"parents":[2147483647,0,0,1,1,2,2,3,3,4,4,5,5,6,6],"right_children":[2,4,6,8,10,12,14,-1,-1,-1,-1,-1,-1,-1,-1],"split_conditions":[-1.68E-2,2.49E0,-1.48E-2,-1.241E-1,2.1589038E0,1.434E1,2.49E0,2.8279766E-2,4.5742653E-3,5.9859484E-4,2.094294E-2,-2.2077892E-2,-1.8304622E-3,-1.1258482E-2,-5.9949857E-4],"split_indices":[32,11,32,32,4,7,11,0,0,0,0,0,0,0,0],"split_type":[0,0,0,0,0,0,0,0,0,0,0,0,0,0,0],"sum_hessian":[2.7731965E3,1.094007E3,1.6791897E3,2.231133E1,1.0716956E3,3.2804653E1,1.646385E3,1.05116005E1,1.179973E1,1.0572032E3,1.4492379E1,1.5558948E1,1.7245707E1,3.6509556E1,1.6098755E3],"tree_param":{"num_deleted":"0","num_feature":"35","num_nodes":"15","size_leaf_vector":"1"}},{"base_weights":[1.1952214E-3,1.6580611E-1,-1.7581878E-3,5.430904E-2,2.0569779E-2,-1.2641847E-2,-4.281527E-4,2.0597776E-2,-5.034106E-3,1.2093433E-2,-9.0385394E-5],"categories":[],"categories_nodes":[],"categories_segments":[],"categories_sizes":[],"default_left":[0,0,0,0,0,0,0,0,0,0,0],"id":39,"left_children":[1,3,5,7,-1,-1,9,-1,-1,-1,-1],"loss_changes":[1.399671E0,1.1345842E0,7.6153004E-1,2.2735426E0,0E0,0E0,7.65836E-1,0E0,0E0,0E0,0E0],"parents":[2147483647,0,0,1,1,2,2,3,3,6,6],"right_children":[2,4,6,8,-1,-1,10,-1,-1,-1,-1],"split_conditions":[-6.97E-2,8.85E-2,-6.51E-2,-1.613E-1,2.0569779E-2,-1.2641847E-2,-6.27E-2,2.0597776E-2,-5.034106E-3,1.2093433E-2,-9.0385394E-5],"split_indices":[30,32,30,32,0,0,30,0,0,0,0],"split_type":[0,0,0,0,0,0,0,0,0,0,0],"sum_hessian":[2.7086973E3,4.9754265E1,2.658943E3,3.645901E1,1.3295255E1,1.1033611E1,2.6479094E3,1.1497128E1,2.4961884E1,1.1952114E1,2.6359573E3],"tree_param":{"num_deleted":"0","num_feature":"35","num_nodes":"11","size_leaf_vector":"1"}},{"base_weights":[2.4250743E-3,-7.620505E-2,8.682735E-3,-1.1120238E-1,1.6592814E-2,1.5427546E-2,-6.7350894E-2,-3.1522312E-3,-2.4866482E-2,6.6053943E-4,1.4296316E-2,-4.686327E-3,1.5464512E-2],"categories":[],"categories_nodes":[],"categories_segments":[],"categories_sizes":[],"default_left":[0,0,0,0,0,0,0,0,0,0,0,0,0],"id":40,"left_children":[1,3,5,7,-1,9,11,-1,-1,-1,-1,-1,-1],"loss_changes":[1.322941E0,2.7452607E0,1.2877126E0,3.1036077E0,0E0,1.2605088E0,1.9348733E0,0E0,0E0,0E0,0E0,0E0,0E0],"parents":[2147483647,0,0,1,1,2,2,3,3,5,5,6,6],"right_children":[2,4,6,8,-1,10,12,-1,-1,-1,-1,-1,-1],"split_conditions":[2E0,1.446677E-1,7.48E-2,1E0,1.6592814E-2,8.06E-2,1E0,-3.1522312E-3,-2.4866482E-2,6.6053943E-4,1.4296316E-2,-4.686327E-3,1.5464512E-2],"split_indices":[34,17,31,28,0,30,22,0,0,0,0,0,0],"split_type":[0,0,0,0,0,0,0,0,0,0,0,0,0],"sum_hessian":[2.7549517E3,1.9637225E2,2.5585793E3,1.826593E2,1.371296E1,2.356878E3,2.0170139E2,1.6458984E2,1.8069448E1,2.340594E3,1.6284065E1,1.9044357E2,1.1257817E1],"tree_param":{"num_deleted":"0","num_feature":"35","num_nodes":"13","size_leaf_vector":"1"}},{"base_weights":[-4.5740046E-3,8.94106E-3,-2.636241E-2,7.381139E-4,1.3585198E-1,-1.1783641E-1,-0E0,9.470996E-4,-2.8568623E-3,1.1607395E-2,-4.045237E-3,-9.601738E-3,1.3315844E-4,2.9949644E-3,-2.7405012E-3],"categories":[],"categories_nodes":[],"categories_segments":[],"categories_sizes":[],"default_left":[0,0,0,0,0,0,0,0,0,0,0,0,0,0,0],"id":41,"left_children":[1,3,5,7,9,11,13,-1,-1,-1,-1,-1,-1,-1,-1],"loss_changes":[8.193345E-1,1.685818E0,2.6162736E0,1.6544594E0,2.1523724E0,2.2577322E0,2.7204335E0,0E0,0E0,0E0,0E0,0E0,0E0,0E0,0E0],"parents":[2147483647,0,0,1,1,2,2,3,3,4,4,5,5,6,6],"right_children":[2,4,6,8,10,12,14,-1,-1,-1,-1,-1,-1,-1,-1],"split_conditions":[2.7345907E-2,2.6209496E-2,-8.86E-2,5.27E-2,8.157848E-2,5.1716328E-2,1E0,9.470996E-4,-2.8568623E-3,1.1607395E-2,-4.045237E-3,-9.601738E-3,1.3315844E-4,2.9949644E-3,-2.7405012E-3],"split_indices":[33,33,32,32,14,33,6,0,0,0,0,0,0,0,0],"split_type":[0,0,0,0,0,0,0,0,0,0,0,0,0,0,0],"sum_hessian":[2.751007E3,1.6840527E3,1.0669545E3,1.586457E3,9.759579E1,2.4087076E2,8.260837E2,1.2139409E3,3.7251605E2,6.912305E1,2.847274E1,1.5127684E2,8.959392E1,3.977001E2,4.2838358E2],"tree_param":{"num_deleted":"0","num_feature":"35","num_nodes":"15","size_leaf_vector":"1"}},{"base_weights":[-6.7151507E-4,1.9429013E-2,-2.297348E-2,3.819612E-2,-3.411093E-2,-3.7246745E-2,6.7222625E-2,-1.5174219E-4,3.4532608E-3,-3.6617268E-3,3.1926155E-3,-1.354197E-4,-4.0918626E-3,7.299089E-3,-6.152348E-3],"categories":[],"categories_nodes":[],"categories_segments":[],"categories_sizes":[],"default_left":[0,0,0,0,0,0,0,0,0,0,0,0,0,0,0],"id":42,"left_children":[1,3,5,7,9,11,13,-1,-1,-1,-1,-1,-1,-1,-1],"loss_changes":[1.236303E0,1.4469016E0,1.6833335E0,1.396578E0,1.4140371E0,1.7173704E0,2.6600008E0,0E0,0E0,0E0,0E0,0E0,0E0,0E0,0E0],"parents":[2147483647,0,0,1,1,2,2,3,3,4,4,5,5,6,6],"right_children":[2,4,6,8,10,12,14,-1,-1,-1,-1,-1,-1,-1,-1],"split_conditions":[1.9E-3,6.6068727E-1,4.64E-2,6E0,-8.6E-3,2.62E-2,2.743E1,-1.5174219E-4,3.4532608E-3,-3.6617268E-3,3.1926155E-3,-1.354197E-4,-4.0918626E-3,7.299089E-3,-6.152348E-3],"split_indices":[30,2,30,34,30,31,7,0,0,0,0,0,0,0,0],"split_type":[0,0,0,0,0,0,0,0,0,0,0,0,0,0,0],"sum_hessian":[2.7519243E3,1.4356748E3,1.3162495E3,1.0701764E3,3.654985E2,1.1417081E3,1.7454138E2,4.516392E2,6.185372E2,2.6501556E2,1.0048295E2,6.502892E2,4.9141888E2,1.2546691E2,4.9074474E1],"tree_param":{"num_deleted":"0","num_feature":"35","num_nodes":"15","size_leaf_vector":"1"}},{"base_weights":[7.424503E-3,1.4678152E-2,-6.968273E-2,-5.777346E-2,2.1390589E-2,-3.0263522E-1,-0E0,2.3495194E-3,-7.508909E-3,6.8586785E-4,4.397805E-3,-0E0,-1.8723266E-2,-2.261484E-3,1.1830637E-2],"categories":[],"categories_nodes":[],"categories_segments":[],"categories_sizes":[],"default_left":[0,0,0,0,0,0,0,0,0,0,0,0,0,0,0],"id":43,"left_children":[1,3,5,7,9,11,13,-1,-1,-1,-1,-1,-1,-1,-1],"loss_changes":[1.5206683E0,1.2159246E0,3.7142107E0,2.0810192E0,1.1366152E0,1.160059E0,1.9058533E0,0E0,0E0,0E0,0E0,0E0,0E0,0E0,0E0],"parents":[2147483647,0,0,1,1,2,2,3,3,4,4,5,5,6,6],"right_children":[2,4,6,8,10,12,14,-1,-1,-1,-1,-1,-1,-1,-1],"split_conditions":[1E0,-1.1427107E0,0E0,-7E-4,1E0,5.6211956E-2,2.4935257E-2,2.3495194E-3,-7.508909E-3,6.8586785E-4,4.397805E-3,-0E0,-1.8723266E-2,-2.261484E-3,1.1830637E-2],"split_indices":[29,1,9,31,13,17,33,0,0,0,0,0,0,0,0],"split_type":[0,0,0,0,0,0,0,0,0,0,0,0,0,0,0],"sum_hessian":[2.765178E3,2.5340852E3,2.310929E2,2.0790784E2,2.3261772E3,5.185819E1,1.7923471E2,9.51322E1,1.1277564E2,2.0935627E3,2.3261464E2,1.006075E1,4.179744E1,1.517753E2,2.7459414E1],"tree_param":{"num_deleted":"0","num_feature":"35","num_nodes":"15","size_leaf_vector":"1"}},{"base_weights":[1.49444435E-2,4.528514E-4,3.3695135E-2,1.2853636E-2,-1.1795872E-1,-1.8149802E-2,8.2237676E-2,9.191107E-4,-1.3589245E-2,-8.845887E-3,2.5199631E-2,-2.3818835E-4,-1.5087562E-2,3.2683655E-3,1.491836E-2],"categories":[],"categories_nodes":[],"categories_segments":[],"categories_sizes":[],"default_left":[1,0,0,0,0,0,0,0,0,0,0,0,0,0,0],"id":44,"left_children":[1,3,5,7,9,11,13,-1,-1,-1,-1,-1,-1,-1,-1],"loss_changes":[7.205375E-1,2.2209353E0,2.9738731E0,2.0897312E0,5.167638E0,1.9742311E0,2.0175037E0,0E0,0E0,0E0,0E0,0E0,0E0,0E0,0E0],"parents":[2147483647,0,0,1,1,2,2,3,3,4,4,5,5,6,6],"right_children":[2,4,6,8,10,12,14,-1,-1,-1,-1,-1,-1,-1,-1],"split_conditions":[4.21E0,1E0,-1E-3,9.57E-2,1.04663394E-1,8.156406E-2,1E0,9.191107E-4,-1.3589245E-2,-8.845887E-3,2.5199631E-2,-2.3818835E-4,-1.5087562E-2,3.2683655E-3,1.491836E-2],"split_indices":[11,26,31,31,17,33,19,0,0,0,0,0,0,0,0],"split_type":[0,0,0,0,0,0,0,0,0,0,0,0,0,0,0],"sum_hessian":[2.713584E3,1.5462468E3,1.167337E3,1.4042946E3,1.4195233E2,5.5979E2,6.0754706E2,1.3801792E3,2.4115395E1,1.3104878E2,1.0903544E1,5.3721326E2,2.2576721E1,5.669117E2,4.0635406E1],"tree_param":{"num_deleted":"0","num_feature":"35","num_nodes":"15","size_leaf_vector":"1"}},{"base_weights":[7.204753E-5,-1.1974979E-2,2.8113633E-2,1.213921E-2,-4.523596E-2,-8.044006E-2,6.4406544E-2,2.7171427E-3,-1.287873E-3,-1.2820566E-2,-1.4624203E-3,-7.976468E-3,2.6771715E-3,-1.0041747E-2,4.3728324E-3],"categories":[],"categories_nodes":[],"categories_segments":[],"categories_sizes":[],"default_left":[0,0,0,0,0,0,0,0,0,0,0,0,0,0,0],"id":45,"left_children":[1,3,5,7,9,11,13,-1,-1,-1,-1,-1,-1,-1,-1],"loss_changes":[9.3613845E-1,1.5483972E0,3.2988422E0,1.7731837E0,2.5889156E0,2.2547743E0,3.8252676E0,0E0,0E0,0E0,0E0,0E0,0E0,0E0,0E0],"parents":[2147483647,0,0,1,1,2,2,3,3,4,4,5,5,6,6],"right_children":[2,4,6,8,10,12,14,-1,-1,-1,-1,-1,-1,-1,-1],"split_conditions":[1.29E-2,-2.4E-3,-6.0249686E-1,-5.0239493E-3,-1.1456124E0,9.3155906E-2,-3.47E-2,2.7171427E-3,-1.287873E-3,-1.2820566E-2,-1.4624203E-3,-7.976468E-3,2.6771715E-3,-1.0041747E-2,4.3728324E-3],"split_indices":[30,31,0,1,1,17,31,0,0,0,0,0,0,0,0],"split_type":[0,0,0,0,0,0,0,0,0,0,0,0,0,0,0],"sum_hessian":[2.7452517E3,1.9082047E3,8.3704706E2,1.0978596E3,8.103451E2,2.0597462E2,6.3107245E2,5.2545087E2,5.724088E2,5.3772038E1,7.5657306E2,1.3174678E2,7.422785E1,4.8105812E1,5.829666E2],"tree_param":{"num_deleted":"0","num_feature":"35","num_nodes":"15","size_leaf_vector":"1"}},{"base_weights":[8.426654E-3,1.6648715E-2,-5.53096E-2,1.0756177E-2,1.9123243E-1,-1.8516266E-1,-9.45482E-3,-4.4175578E-4,1.6998776E-3,2.4464466E-2,4.779665E-3,7.970284E-3,-1.2814474E-2,1.8359068E-3,-6.435013E-3],"categories":[],"categories_nodes":[],"categories_segments":[],"categories_sizes":[],"default_left":[0,0,0,0,0,0,0,0,0,0,0,0,0,0,0],"id":46,"left_children":[1,3,5,7,9,11,13,-1,-1,-1,-1,-1,-1,-1,-1],"loss_changes":[1.4298005E0,2.423005E0,1.7411307E0,1.0961728E0,1.8654699E0,1.9948785E0,1.3297108E0,0E0,0E0,0E0,0E0,0E0,0E0,0E0,0E0],"parents":[2147483647,0,0,1,1,2,2,3,3,4,4,5,5,6,6],"right_children":[2,4,6,8,10,12,14,-1,-1,-1,-1,-1,-1,-1,-1],"split_conditions":[3.43E-2,2.95E-2,-6.215293E-1,6.08E0,-8.8699263E-1,-9.463754E-1,4.9125344E-1,-4.4175578E-4,1.6998776E-3,2.4464466E-2,4.779665E-3,7.970284E-3,-1.2814474E-2,1.8359068E-3,-6.435013E-3],"split_indices":[30,30,0,11,2,5,2,0,0,0,0,0,0,0,0],"split_type":[0,0,0,0,0,0,0,0,0,0,0,0,0,0,0],"sum_hessian":[2.762531E3,2.454483E3,3.0804797E2,2.3781416E3,7.6341324E1,7.675334E1,2.3129463E2,1.2790631E3,1.0990785E3,1.6275417E1,6.0065907E1,1.1717583E1,6.503576E1,1.6421002E2,6.708461E1],"tree_param":{"num_deleted":"0","num_feature":"35","num_nodes":"15","size_leaf_vector":"1"}},{"base_weights":[-1.1554888E-3,-1.49805965E-2,2.2661867E-2,7.439397E-2,-2.6397068E-2,-2.2092804E-1,4.5684047E-2,1.5719982E-2,1.5503643E-3,-5.2191084E-4,-6.21465E-3,-1.5579574E-2,1.5193589E-2,5.089614E-4,4.5037675E-3],"categories":[],"categories_nodes":[],"categories_segments":[],"categories_sizes":[],"default_left":[0,0,0,0,0,0,0,0,0,0,0,0,0,0,0],"id":47,"left_children":[1,3,5,7,9,11,13,-1,-1,-1,-1,-1,-1,-1,-1],"loss_changes":[9.0349776E-1,1.7704369E0,5.5235806E0,1.8406407E0,2.3739274E0,4.121025E0,1.3914632E0,0E0,0E0,0E0,0E0,0E0,0E0,0E0,0E0],"parents":[2147483647,0,0,1,1,2,2,3,3,4,4,5,5,6,6],"right_children":[2,4,6,8,10,12,14,-1,-1,-1,-1,-1,-1,-1,-1],"split_conditions":[1.73E-2,6.8E-1,6.8E-1,-1.289E-1,6.4E-3,1E0,1.7562954E-1,1.5719982E-2,1.5503643E-3,-5.2191084E-4,-6.21465E-3,-1.5579574E-2,1.5193589E-2,5.089614E-4,4.5037675E-3],"split_indices":[31,10,10,32,31,28,4,0,0,0,0,0,0,0,0],"split_type":[0,0,0,0,0,0,0,0,0,0,0,0,0,0,0],"sum_hessian":[2.7535122E3,1.7557357E3,9.9777655E2,1.9328433E2,1.5624514E3,8.354117E1,9.1423535E2,2.687071E1,1.6641362E2,1.3487881E3,2.1366335E2,7.239359E1,1.114757E1,5.149019E2,3.993334E2],"tree_param":{"num_deleted":"0","num_feature":"35","num_nodes":"15","size_leaf_vector":"1"}},{"base_weights":[6.116425E-3,4.1845735E-2,-2.5166427E-3,-3.9397594E-2,1.06675446E-1,-9.412113E-2,7.883028E-3,1.2788626E-2,-3.140085E-3,1.3480273E-2,2.8097944E-3,5.565302E-3,-7.302505E-3,2.3225434E-4,1.20924255E-2],"categories":[],"categories_nodes":[],"categories_segments":[],"categories_sizes":[],"default_left":[0,0,0,0,0,0,0,0,0,0,0,0,0,0,0],"id":48,"left_children":[1,3,5,7,9,11,13,-1,-1,-1,-1,-1,-1,-1,-1],"loss_changes":[8.7566364E-1,2.941587E0,2.1630254E0,1.5912817E0,2.374237E0,2.5060868E0,1.3859949E0,0E0,0E0,0E0,0E0,0E0,0E0,0E0,0E0],"parents":[2147483647,0,0,1,1,2,2,3,3,4,4,5,5,6,6],"right_children":[2,4,6,8,10,12,14,-1,-1,-1,-1,-1,-1,-1,-1],"split_conditions":[-7.2E-2,-2.5636027E-2,-4.38E-2,-4.333739E-1,1E0,-6.6069025E-1,3.777625E-1,1.2788626E-2,-3.140085E-3,1.3480273E-2,2.8097944E-3,5.565302E-3,-7.302505E-3,2.3225434E-4,1.20924255E-2],"split_indices":[32,2,32,15,8,3,14,0,0,0,0,0,0,0,0],"split_type":[0,0,0,0,0,0,0,0,0,0,0,0,0,0,0],"sum_hessian":[2.77379E3,5.5031104E2,2.223479E3,2.4098862E2,3.0932245E2,2.3077225E2,1.9927068E3,1.5405371E1,2.2558324E2,6.979694E1,2.395255E2,4.4391354E1,1.8638089E2,1.9686193E3,2.408758E1],"tree_param":{"num_deleted":"0","num_feature":"35","num_nodes":"15","size_leaf_vector":"1"}},{"base_weights":[6.725768E-3,1.4144762E-3,1.1684916E-1,1.2973711E-2,-2.7841108E-2,2.1129851E-1,-1.9671211E-2,9.629964E-4,-4.0092E-3,-3.9502146E-4,-9.056474E-3,-1.7767968E-3,1.32620605E-2],"categories":[],"categories_nodes":[],"categories_segments":[],"categories_sizes":[],"default_left":[0,0,0,0,0,0,0,0,0,0,0,0,0],"id":49,"left_children":[1,3,5,7,9,11,-1,-1,-1,-1,-1,-1,-1],"loss_changes":[1.5521114E0,8.835407E-1,5.892024E0,1.0841343E0,2.147458E0,1.5193591E0,0E0,0E0,0E0,0E0,0E0,0E0,0E0],"parents":[2147483647,0,0,1,1,2,2,3,3,4,4,5,5],"right_children":[2,4,6,8,10,12,-1,-1,-1,-1,-1,-1,-1],"split_conditions":[6.768258E-2,2.62E-2,1E0,1E0,1E0,3E0,-1.9671211E-2,9.629964E-4,-4.0092E-3,-3.9502146E-4,-9.056474E-3,-1.7767968E-3,1.32620605E-2],"split_indices":[33,31,23,19,20,34,0,0,0,0,0,0,0],"split_type":[0,0,0,0,0,0,0,0,0,0,0,0,0],"sum_hessian":[2.754027E3,2.6326086E3,1.2141847E2,1.8996724E3,7.329362E2,1.0377581E2,1.7642666E1,1.7853582E3,1.1431422E2,6.523836E2,8.055264E1,1.7010447E1,8.6765366E1],"tree_param":{"num_deleted":"0","num_feature":"35","num_nodes":"13","size_leaf_vector":"1"}},{"base_weights":[3.7646429E-3,1.13077415E-2,-5.2042875E-2,1.7065691E-3,7.107184E-2,-2.6585368E-2,-2.9165331E-2,4.1725952E-4,-6.7347395E-3,7.2347554E-3,-4.42182E-3,1.3804913E-3,-7.0143864E-3],"categories":[],"categories_nodes":[],"categories_segments":[],"categories_sizes":[],"default_left":[0,0,0,0,0,0,0,0,0,0,0,0,0],"id":50,"left_children":[1,3,5,7,9,-1,11,-1,-1,-1,-1,-1,-1],"loss_changes":[1.1327381E0,1.352411E0,3.196668E0,1.8338652E0,3.8905225E0,0E0,1.9897511E0,0E0,0E0,0E0,0E0,0E0,0E0],"parents":[2147483647,0,0,1,1,2,2,3,3,4,4,6,6],"right_children":[2,4,6,8,10,-1,12,-1,-1,-1,-1,-1,-1],"split_conditions":[6.19E-2,4.110142E-2,6.4E-1,3.6677077E-2,1.65E0,-2.6585368E-2,4.51873E-2,4.1725952E-4,-6.7347395E-3,7.2347554E-3,-4.42182E-3,1.3804913E-3,-7.0143864E-3],"split_indices":[31,33,10,33,10,0,33,0,0,0,0,0,0],"split_type":[0,0,0,0,0,0,0,0,0,0,0,0,0],"sum_hessian":[2.7368203E3,2.4195447E3,3.172756E2,2.0927385E3,3.2680612E2,1.2436088E1,3.048395E2,2.0000034E3,9.273522E1,2.2580852E2,1.0099759E2,1.9927635E2,1.0556318E2],"tree_param":{"num_deleted":"0","num_feature":"35","num_nodes":"13","size_leaf_vector":"1"}},{"base_weights":[2.788149E-3,-6.150701E-2,1.5209119E-2,-1.8095814E-1,-9.186551E-3,1.4649634E-2,1.2858662E-2,-6.875314E-3,-2.4046492E-2,2.9134636E-3,-8.37737E-3,-4.105655E-3,9.255993E-4],"categories":[],"categories_nodes":[],"categories_segments":[],"categories_sizes":[],"default_left":[0,0,0,0,0,0,0,0,0,0,0,0,0],"id":51,"left_children":[1,3,5,7,9,-1,11,-1,-1,-1,-1,-1,-1],"loss_changes":[2.1576753E0,2.6258192E0,1.3417432E0,1.3155255E0,3.342843E0,0E0,1.1930913E0,0E0,0E0,0E0,0E0,0E0,0E0],"parents":[2147483647,0,0,1,1,2,2,3,3,4,4,6,6],"right_children":[2,4,6,8,10,-1,12,-1,-1,-1,-1,-1,-1],"split_conditions":[-2.61E-2,6.671522E-2,-3.095E-1,1E0,4.665613E-2,1.4649634E-2,-3.835072E-1,-6.875314E-3,-2.4046492E-2,2.9134636E-3,-8.37737E-3,-4.105655E-3,9.255993E-4],"split_indices":[30,17,32,27,33,0,15,0,0,0,0,0,0],"split_type":[0,0,0,0,0,0,0,0,0,0,0,0,0],"sum_hessian":[2.7286099E3,4.3462695E2,2.293983E3,1.2872469E2,3.0590228E2,1.6425234E1,2.2775579E3,1.1516752E2,1.3557164E1,2.1275238E2,9.314988E1,1.2222911E2,2.1553286E3],"tree_param":{"num_deleted":"0","num_feature":"35","num_nodes":"13","size_leaf_vector":"1"}},{"base_weights":[7.8093247E-3,1.3714429E-2,-2.443086E-2,1.0345694E-2,1.1866024E-1,1.5684953E-2,-1.3975312E-1,6.54828E-5,2.6219368E-3,1.378838E-2,3.7465926E-4,-6.3406763E-4,9.636412E-3,-1.1504292E-2,2.6574612E-3],"categories":[],"categories_nodes":[],"categories_segments":[],"categories_sizes":[],"default_left":[0,0,0,0,0,0,0,0,0,0,0,0,0,0,0],"id":52,"left_children":[1,3,5,7,9,11,13,-1,-1,-1,-1,-1,-1,-1,-1],"loss_changes":[5.2116215E-1,7.649819E-1,1.984629E0,8.41165E-1,1.0503676E0,1.6275122E0,2.025336E0,0E0,0E0,0E0,0E0,0E0,0E0,0E0,0E0],"parents":[2147483647,0,0,1,1,2,2,3,3,4,4,5,5,6,6],"right_children":[2,4,6,8,10,12,14,-1,-1,-1,-1,-1,-1,-1,-1],"split_conditions":[1.1E1,1.713879E0,3.690794E-2,3.9559446E-2,5E0,3.0861799E-2,1.69E0,6.54828E-5,2.6219368E-3,1.378838E-2,3.7465926E-4,-6.3406763E-4,9.636412E-3,-1.1504292E-2,2.6574612E-3],"split_indices":[34,4,33,33,34,33,10,0,0,0,0,0,0,0,0],"split_type":[0,0,0,0,0,0,0,0,0,0,0,0,0,0,0],"sum_hessian":[2.7628447E3,2.3487344E3,4.1411038E2,2.281366E3,6.7368355E1,3.0466013E2,1.0945026E2,1.8888085E3,3.9255753E2,2.543866E1,4.192969E1,2.609537E2,4.3706432E1,7.617711E1,3.3273148E1],"tree_param":{"num_deleted":"0","num_feature":"35","num_nodes":"15","size_leaf_vector":"1"}},{"base_weights":[-0E0,4.084095E-2,-9.573458E-3,-6.9891317E-3,1.1723358E-1,9.876697E-2,-1.3586039E-2,2.1712037E-3,-5.526137E-3,1.4285209E-2,2.854653E-3,1.4552838E-2,1.520642E-3,-1.7361041E-3,2.374169E-4],"categories":[],"categories_nodes":[],"categories_segments":[],"categories_sizes":[],"default_left":[0,0,0,0,0,0,0,0,0,0,0,0,0,0,0],"id":53,"left_children":[1,3,5,7,9,11,13,-1,-1,-1,-1,-1,-1,-1,-1],"loss_changes":[1.0798334E0,1.968739E0,9.3892115E-1,1.7025876E0,1.895886E0,8.3190256E-1,8.597416E-1,0E0,0E0,0E0,0E0,0E0,0E0,0E0,0E0],"parents":[2147483647,0,0,1,1,2,2,3,3,4,4,5,5,6,6],"right_children":[2,4,6,8,10,12,14,-1,-1,-1,-1,-1,-1,-1,-1],"split_conditions":[1.51636405E-2,5.7E0,2.66E0,1.01E0,7.5E-1,-3.62E-2,1.03E0,2.1712037E-3,-5.526137E-3,1.4285209E-2,2.854653E-3,1.4552838E-2,1.520642E-3,-1.7361041E-3,2.374169E-4],"split_indices":[33,11,11,10,10,31,10,0,0,0,0,0,0,0,0],"split_type":[0,0,0,0,0,0,0,0,0,0,0,0,0,0,0],"sum_hessian":[2.7761902E3,5.224996E2,2.2536907E3,3.1785266E2,2.046469E2,7.51948E1,2.1784958E3,2.1090753E2,1.0694514E2,5.066249E1,1.539844E2,1.6947153E1,5.8247646E1,1.0241841E3,1.1543116E3],"tree_param":{"num_deleted":"0","num_feature":"35","num_nodes":"15","size_leaf_vector":"1"}},{"base_weights":[-2.157532E-3,1.4334074E-1,-4.5908303E-3,-0E0,2.0280814E-2,-1.3121178E-3,-1.0238651E-1,-7.631983E-3,9.6737305E-3,7.569159E-6,-1.0991113E-2,-0E0,-1.9705987E-2],"categories":[],"categories_nodes":[],"categories_segments":[],"categories_sizes":[],"default_left":[0,0,1,0,0,0,0,0,0,0,0,0,0],"id":54,"left_children":[1,3,5,7,-1,9,11,-1,-1,-1,-1,-1,-1],"loss_changes":[9.124045E-1,1.5275369E0,8.2336664E-1,8.824322E-1,0E0,9.5647377E-1,2.3773522E0,0E0,0E0,0E0,0E0,0E0,0E0],"parents":[2147483647,0,0,1,1,2,2,3,3,5,5,6,6],"right_children":[2,4,6,8,-1,10,12,-1,-1,-1,-1,-1,-1],"split_conditions":[-2.444E-1,8.51E0,1.014E1,-7.7E-2,2.0280814E-2,1.841E-1,4.404073E-2,-7.631983E-3,9.6737305E-3,7.569159E-6,-1.0991113E-2,-0E0,-1.9705987E-2],"split_indices":[32,11,11,31,0,31,33,0,0,0,0,0,0],"split_type":[0,0,0,0,0,0,0,0,0,0,0,0,0],"sum_hessian":[2.7702107E3,4.123421E1,2.7289763E3,2.767526E1,1.3558949E1,2.6463796E3,8.25968E1,1.5159038E1,1.2516224E1,2.6274927E3,1.88869E1,6.2649853E1,1.9946947E1],"tree_param":{"num_deleted":"0","num_feature":"35","num_nodes":"13","size_leaf_vector":"1"}},{"base_weights":[9.016931E-3,-1.1521927E-1,1.3509465E-2,-2.2510873E-1,1.337367E-1,8.280582E-2,6.038223E-3,3.3802507E-3,-1.5627047E-2,1.9713994E-2,-7.260485E-3,2.9019685E-4,1.0031975E-2,-5.7209993E-4,1.5989094E-3],"categories":[],"categories_nodes":[],"categories_segments":[],"categories_sizes":[],"default_left":[0,0,0,0,0,0,0,0,0,0,0,0,0,0,0],"id":55,"left_children":[1,3,5,7,9,11,13,-1,-1,-1,-1,-1,-1,-1,-1],"loss_changes":[1.4682463E0,2.5683517E0,1.3161093E0,1.8064902E0,2.153872E0,2.1572065E0,1.0900797E0,0E0,0E0,0E0,0E0,0E0,0E0,0E0,0E0],"parents":[2147483647,0,0,1,1,2,2,3,3,4,4,5,5,6,6],"right_children":[2,4,6,8,10,12,14,-1,-1,-1,-1,-1,-1,-1,-1],"split_conditions":[8.890763E-3,7.9937205E-2,1.3106703E-2,-5.807589E-1,8.9338064E-2,2.3880209E-1,1.35E-2,3.3802507E-3,-1.5627047E-2,1.9713994E-2,-7.260485E-3,2.9019685E-4,1.0031975E-2,-5.7209993E-4,1.5989094E-3],"split_indices":[33,17,33,2,17,3,31,0,0,0,0,0,0,0,0],"split_type":[0,0,0,0,0,0,0,0,0,0,0,0,0,0,0],"sum_hessian":[2.7179546E3,9.011022E1,2.6278442E3,6.397553E1,2.6134697E1,2.482548E2,2.3795896E3,1.3451011E1,5.0524517E1,1.4226126E1,1.1908571E1,1.5334169E2,9.491312E1,1.4104261E3,9.691634E2],"tree_param":{"num_deleted":"0","num_feature":"35","num_nodes":"15","size_leaf_vector":"1"}},{"base_weights":[-5.180729E-4,-3.2657683E-2,1.1050227E-2,-7.610053E-2,3.6694188E-2,2.0181152E-1,3.337486E-3,-1.7500486E-3,-9.81197E-3,1.4275472E-2,-0E0,2.4291538E-3,1.877539E-2,-7.116277E-3,3.8367836E-4],"categories":[],"categories_nodes":[],"categories_segments":[],"categories_sizes":[],"default_left":[0,0,0,0,0,0,0,0,0,0,0,0,0,0,0],"id":56,"left_children":[1,3,5,7,9,11,13,-1,-1,-1,-1,-1,-1,-1,-1],"loss_changes":[1.0220596E0,2.2258358E0,2.8225656E0,2.1212213E0,2.5634484E0,1.7589691E0,1.143204E0,0E0,0E0,0E0,0E0,0E0,0E0,0E0,0E0],"parents":[2147483647,0,0,1,1,2,2,3,3,4,4,5,5,6,6],"right_children":[2,4,6,8,10,12,14,-1,-1,-1,-1,-1,-1,-1,-1],"split_conditions":[1.7318593E-2,1E0,1.8023208E-2,7.658988E-2,3E0,2.5800645E-2,1.8596388E-2,-1.7500486E-3,-9.81197E-3,1.4275472E-2,-0E0,2.4291538E-3,1.877539E-2,-7.116277E-3,3.8367836E-4],"split_indices":[33,6,33,17,34,14,33,0,0,0,0,0,0,0,0],"split_type":[0,0,0,0,0,0,0,0,0,0,0,0,0,0,0],"sum_hessian":[2.7179167E3,7.3031604E2,1.9876007E3,4.5340808E2,2.76908E2,7.374139E1,1.9138594E3,3.4189786E2,1.115102E2,3.5037766E1,2.4187022E2,4.138838E1,3.2353012E1,5.1071373E1,1.862788E3],"tree_param":{"num_deleted":"0","num_feature":"35","num_nodes":"15","size_leaf_vector":"1"}}]},"name":"gbtree"},"learner_model_param":{"base_score":"[-0E0]","boost_from_average":"1","num_class":"0","num_feature":"35","num_target":"1"},"objective":{"lambdarank_param":{"lambdarank_bias_norm":"1","lambdarank_normalization":"1","lambdarank_num_pair_per_sample":"4294967295","lambdarank_pair_method":"topk","lambdarank_score_normalization":"1","lambdarank_unbiased":"0","ndcg_exp_gain":"1"},"name":"rank:pairwise"}},"version":[3,2,0]}